digraph Tree {
node [shape=box, style="filled, rounded", color="black", fontname=helvetica] ;
edge [fontname=helvetica] ;
0 [label=<ScheduledDay &le; 17.5<br/>gini = 0.5<br/>samples = 77368<br/>value = [38684.0, 38684.0]<br/>class = No>, fillcolor="#e5813900"] ;
1 [label=<Age &le; 46.5<br/>gini = 0.46<br/>samples = 20453<br/>value = [8815.654, 15802.425]<br/>class = Yes>, fillcolor="#399de571"] ;
0 -> 1 [labeldistance=2.5, labelangle=45, headlabel="True"] ;
2 [label=<AppointmentDay &le; 17.5<br/>gini = 0.434<br/>samples = 12803<br/>value = [5203.184, 11137.466]<br/>class = Yes>, fillcolor="#399de588"] ;
1 -> 2 ;
3 [label=<ScheduledDay &le; 16.5<br/>gini = 0.498<br/>samples = 1503<br/>value = [731.766, 829.491]<br/>class = Yes>, fillcolor="#399de51e"] ;
2 -> 3 ;
4 [label=<Age &le; 0.5<br/>gini = 0.465<br/>samples = 666<br/>value = [290.702, 500.171]<br/>class = Yes>, fillcolor="#399de56b"] ;
3 -> 4 ;
5 [label=<ScheduledDay &le; 11.5<br/>gini = 0.49<br/>samples = 44<br/>value = [23.181, 17.333]<br/>class = No>, fillcolor="#e5813940"] ;
4 -> 5 ;
6 [label=<gini = 0.0<br/>samples = 7<br/>value = [4.386, 0.0]<br/>class = No>, fillcolor="#e58139ff"] ;
5 -> 6 ;
7 [label=<ScheduledDay &le; 12.5<br/>gini = 0.499<br/>samples = 37<br/>value = [18.795, 17.333]<br/>class = No>, fillcolor="#e5813914"] ;
5 -> 7 ;
8 [label=<gini = 0.0<br/>samples = 2<br/>value = [0.0, 4.952]<br/>class = Yes>, fillcolor="#399de5ff"] ;
7 -> 8 ;
9 [label=<ScheduledDay &le; 15.5<br/>gini = 0.479<br/>samples = 35<br/>value = [18.795, 12.38]<br/>class = No>, fillcolor="#e5813957"] ;
7 -> 9 ;
10 [label=<Gender &le; 0.5<br/>gini = 0.491<br/>samples = 31<br/>value = [16.289, 12.38]<br/>class = No>, fillcolor="#e581393d"] ;
9 -> 10 ;
11 [label=<ScheduledDay &le; 13.5<br/>gini = 0.452<br/>samples = 17<br/>value = [9.398, 4.952]<br/>class = No>, fillcolor="#e5813979"] ;
10 -> 11 ;
12 [label=<gini = -0.0<br/>samples = 11<br/>value = [6.892, 0.0]<br/>class = No>, fillcolor="#e58139ff"] ;
11 -> 12 ;
13 [label=<SMS_received &le; 0.5<br/>gini = 0.446<br/>samples = 6<br/>value = [2.506, 4.952]<br/>class = Yes>, fillcolor="#399de57e"] ;
11 -> 13 ;
14 [label=<gini = 0.0<br/>samples = 1<br/>value = [0.627, 0.0]<br/>class = No>, fillcolor="#e58139ff"] ;
13 -> 14 ;
15 [label=<ScheduledDay &le; 14.5<br/>gini = 0.399<br/>samples = 5<br/>value = [1.88, 4.952]<br/>class = Yes>, fillcolor="#399de59e"] ;
13 -> 15 ;
16 [label=<gini = 0.446<br/>samples = 3<br/>value = [1.253, 2.476]<br/>class = Yes>, fillcolor="#399de57e"] ;
15 -> 16 ;
17 [label=<gini = 0.322<br/>samples = 2<br/>value = [0.627, 2.476]<br/>class = Yes>, fillcolor="#399de5be"] ;
15 -> 17 ;
18 [label=<ScheduledDay &le; 13.5<br/>gini = 0.499<br/>samples = 14<br/>value = [6.892, 7.428]<br/>class = Yes>, fillcolor="#399de512"] ;
10 -> 18 ;
19 [label=<SMS_received &le; 0.5<br/>gini = 0.481<br/>samples = 11<br/>value = [5.012, 7.428]<br/>class = Yes>, fillcolor="#399de553"] ;
18 -> 19 ;
20 [label=<gini = 0.322<br/>samples = 2<br/>value = [0.627, 2.476]<br/>class = Yes>, fillcolor="#399de5be"] ;
19 -> 20 ;
21 [label=<gini = 0.498<br/>samples = 9<br/>value = [4.386, 4.952]<br/>class = Yes>, fillcolor="#399de51d"] ;
19 -> 21 ;
22 [label=<gini = -0.0<br/>samples = 3<br/>value = [1.88, 0.0]<br/>class = No>, fillcolor="#e58139ff"] ;
18 -> 22 ;
23 [label=<gini = 0.0<br/>samples = 4<br/>value = [2.506, 0.0]<br/>class = No>, fillcolor="#e58139ff"] ;
9 -> 23 ;
24 [label=<Age &le; 30.5<br/>gini = 0.459<br/>samples = 622<br/>value = [267.521, 482.838]<br/>class = Yes>, fillcolor="#399de572"] ;
4 -> 24 ;
25 [label=<Scholarship &le; 0.5<br/>gini = 0.434<br/>samples = 393<br/>value = [159.761, 341.701]<br/>class = Yes>, fillcolor="#399de588"] ;
24 -> 25 ;
26 [label=<Age &le; 2.5<br/>gini = 0.445<br/>samples = 346<br/>value = [144.098, 287.227]<br/>class = Yes>, fillcolor="#399de57f"] ;
25 -> 26 ;
27 [label=<ScheduledDay &le; 10.0<br/>gini = 0.344<br/>samples = 36<br/>value = [11.904, 42.094]<br/>class = Yes>, fillcolor="#399de5b7"] ;
26 -> 27 ;
28 [label=<gini = 0.0<br/>samples = 2<br/>value = [1.253, 0.0]<br/>class = No>, fillcolor="#e58139ff"] ;
27 -> 28 ;
29 [label=<ScheduledDay &le; 14.5<br/>gini = 0.322<br/>samples = 34<br/>value = [10.651, 42.094]<br/>class = Yes>, fillcolor="#399de5be"] ;
27 -> 29 ;
30 [label=<Gender &le; 0.5<br/>gini = 0.239<br/>samples = 18<br/>value = [4.386, 27.237]<br/>class = Yes>, fillcolor="#399de5d6"] ;
29 -> 30 ;
31 [label=<ScheduledDay &le; 13.5<br/>gini = 0.112<br/>samples = 10<br/>value = [1.253, 19.809]<br/>class = Yes>, fillcolor="#399de5ef"] ;
30 -> 31 ;
32 [label=<Age &le; 1.5<br/>gini = 0.067<br/>samples = 8<br/>value = [0.627, 17.333]<br/>class = Yes>, fillcolor="#399de5f6"] ;
31 -> 32 ;
33 [label=<SMS_received &le; 0.5<br/>gini = 0.112<br/>samples = 5<br/>value = [0.627, 9.904]<br/>class = Yes>, fillcolor="#399de5ef"] ;
32 -> 33 ;
34 [label=<gini = 0.0<br/>samples = 2<br/>value = [0.0, 4.952]<br/>class = Yes>, fillcolor="#399de5ff"] ;
33 -> 34 ;
35 [label=<ScheduledDay &le; 12.0<br/>gini = 0.199<br/>samples = 3<br/>value = [0.627, 4.952]<br/>class = Yes>, fillcolor="#399de5df"] ;
33 -> 35 ;
36 [label=<gini = 0.0<br/>samples = 1<br/>value = [0.0, 2.476]<br/>class = Yes>, fillcolor="#399de5ff"] ;
35 -> 36 ;
37 [label=<gini = 0.322<br/>samples = 2<br/>value = [0.627, 2.476]<br/>class = Yes>, fillcolor="#399de5be"] ;
35 -> 37 ;
38 [label=<gini = 0.0<br/>samples = 3<br/>value = [0.0, 7.428]<br/>class = Yes>, fillcolor="#399de5ff"] ;
32 -> 38 ;
39 [label=<Age &le; 1.5<br/>gini = 0.322<br/>samples = 2<br/>value = [0.627, 2.476]<br/>class = Yes>, fillcolor="#399de5be"] ;
31 -> 39 ;
40 [label=<gini = 0.0<br/>samples = 1<br/>value = [0.627, 0.0]<br/>class = No>, fillcolor="#e58139ff"] ;
39 -> 40 ;
41 [label=<gini = 0.0<br/>samples = 1<br/>value = [0.0, 2.476]<br/>class = Yes>, fillcolor="#399de5ff"] ;
39 -> 41 ;
42 [label=<Age &le; 1.5<br/>gini = 0.417<br/>samples = 8<br/>value = [3.133, 7.428]<br/>class = Yes>, fillcolor="#399de593"] ;
30 -> 42 ;
43 [label=<SMS_received &le; 0.5<br/>gini = 0.247<br/>samples = 5<br/>value = [1.253, 7.428]<br/>class = Yes>, fillcolor="#399de5d4"] ;
42 -> 43 ;
44 [label=<gini = 0.0<br/>samples = 1<br/>value = [0.0, 2.476]<br/>class = Yes>, fillcolor="#399de5ff"] ;
43 -> 44 ;
45 [label=<ScheduledDay &le; 12.5<br/>gini = 0.322<br/>samples = 4<br/>value = [1.253, 4.952]<br/>class = Yes>, fillcolor="#399de5be"] ;
43 -> 45 ;
46 [label=<gini = 0.322<br/>samples = 2<br/>value = [0.627, 2.476]<br/>class = Yes>, fillcolor="#399de5be"] ;
45 -> 46 ;
47 [label=<gini = 0.322<br/>samples = 2<br/>value = [0.627, 2.476]<br/>class = Yes>, fillcolor="#399de5be"] ;
45 -> 47 ;
48 [label=<gini = -0.0<br/>samples = 3<br/>value = [1.88, 0.0]<br/>class = No>, fillcolor="#e58139ff"] ;
42 -> 48 ;
49 [label=<ScheduledDay &le; 15.5<br/>gini = 0.417<br/>samples = 16<br/>value = [6.265, 14.857]<br/>class = Yes>, fillcolor="#399de593"] ;
29 -> 49 ;
50 [label=<gini = 0.0<br/>samples = 3<br/>value = [1.88, 0.0]<br/>class = No>, fillcolor="#e58139ff"] ;
49 -> 50 ;
51 [label=<Gender &le; 0.5<br/>gini = 0.352<br/>samples = 13<br/>value = [4.386, 14.857]<br/>class = Yes>, fillcolor="#399de5b4"] ;
49 -> 51 ;
52 [label=<Age &le; 1.5<br/>gini = 0.493<br/>samples = 6<br/>value = [3.133, 2.476]<br/>class = No>, fillcolor="#e5813935"] ;
51 -> 52 ;
53 [label=<gini = -0.0<br/>samples = 4<br/>value = [2.506, 0.0]<br/>class = No>, fillcolor="#e58139ff"] ;
52 -> 53 ;
54 [label=<gini = 0.322<br/>samples = 2<br/>value = [0.627, 2.476]<br/>class = Yes>, fillcolor="#399de5be"] ;
52 -> 54 ;
55 [label=<SMS_received &le; 0.5<br/>gini = 0.167<br/>samples = 7<br/>value = [1.253, 12.38]<br/>class = Yes>, fillcolor="#399de5e5"] ;
51 -> 55 ;
56 [label=<gini = 0.0<br/>samples = 2<br/>value = [0.0, 4.952]<br/>class = Yes>, fillcolor="#399de5ff"] ;
55 -> 56 ;
57 [label=<Age &le; 1.5<br/>gini = 0.247<br/>samples = 5<br/>value = [1.253, 7.428]<br/>class = Yes>, fillcolor="#399de5d4"] ;
55 -> 57 ;
58 [label=<gini = 0.322<br/>samples = 2<br/>value = [0.627, 2.476]<br/>class = Yes>, fillcolor="#399de5be"] ;
57 -> 58 ;
59 [label=<gini = 0.199<br/>samples = 3<br/>value = [0.627, 4.952]<br/>class = Yes>, fillcolor="#399de5df"] ;
57 -> 59 ;
60 [label=<ScheduledDay &le; 8.5<br/>gini = 0.455<br/>samples = 310<br/>value = [132.194, 245.133]<br/>class = Yes>, fillcolor="#399de575"] ;
26 -> 60 ;
61 [label=<Age &le; 4.0<br/>gini = 0.221<br/>samples = 11<br/>value = [2.506, 17.333]<br/>class = Yes>, fillcolor="#399de5da"] ;
60 -> 61 ;
62 [label=<gini = 0.0<br/>samples = 2<br/>value = [1.253, 0.0]<br/>class = No>, fillcolor="#e58139ff"] ;
61 -> 62 ;
63 [label=<Age &le; 28.0<br/>gini = 0.126<br/>samples = 9<br/>value = [1.253, 17.333]<br/>class = Yes>, fillcolor="#399de5ed"] ;
61 -> 63 ;
64 [label=<gini = 0.0<br/>samples = 7<br/>value = [0.0, 17.333]<br/>class = Yes>, fillcolor="#399de5ff"] ;
63 -> 64 ;
65 [label=<gini = -0.0<br/>samples = 2<br/>value = [1.253, 0.0]<br/>class = No>, fillcolor="#e58139ff"] ;
63 -> 65 ;
66 [label=<Age &le; 5.5<br/>gini = 0.462<br/>samples = 299<br/>value = [129.688, 227.801]<br/>class = Yes>, fillcolor="#399de56e"] ;
60 -> 66 ;
67 [label=<ScheduledDay &le; 15.5<br/>gini = 0.5<br/>samples = 31<br/>value = [15.663, 14.857]<br/>class = No>, fillcolor="#e581390d"] ;
66 -> 67 ;
68 [label=<ScheduledDay &le; 11.5<br/>gini = 0.494<br/>samples = 25<br/>value = [11.904, 14.857]<br/>class = Yes>, fillcolor="#399de533"] ;
67 -> 68 ;
69 [label=<gini = 0.0<br/>samples = 2<br/>value = [1.253, 0.0]<br/>class = No>, fillcolor="#e58139ff"] ;
68 -> 69 ;
70 [label=<ScheduledDay &le; 12.5<br/>gini = 0.486<br/>samples = 23<br/>value = [10.651, 14.857]<br/>class = Yes>, fillcolor="#399de548"] ;
68 -> 70 ;
71 [label=<Age &le; 4.5<br/>gini = 0.322<br/>samples = 2<br/>value = [0.627, 2.476]<br/>class = Yes>, fillcolor="#399de5be"] ;
70 -> 71 ;
72 [label=<gini = 0.0<br/>samples = 1<br/>value = [0.627, 0.0]<br/>class = No>, fillcolor="#e58139ff"] ;
71 -> 72 ;
73 [label=<gini = 0.0<br/>samples = 1<br/>value = [0.0, 2.476]<br/>class = Yes>, fillcolor="#399de5ff"] ;
71 -> 73 ;
74 [label=<Age &le; 4.5<br/>gini = 0.494<br/>samples = 21<br/>value = [10.024, 12.38]<br/>class = Yes>, fillcolor="#399de531"] ;
70 -> 74 ;
75 [label=<ScheduledDay &le; 13.5<br/>gini = 0.485<br/>samples = 19<br/>value = [8.771, 12.38]<br/>class = Yes>, fillcolor="#399de54a"] ;
74 -> 75 ;
76 [label=<Age &le; 3.5<br/>gini = 0.493<br/>samples = 6<br/>value = [3.133, 2.476]<br/>class = No>, fillcolor="#e5813935"] ;
75 -> 76 ;
77 [label=<SMS_received &le; 0.5<br/>gini = 0.446<br/>samples = 3<br/>value = [1.253, 2.476]<br/>class = Yes>, fillcolor="#399de57e"] ;
76 -> 77 ;
78 [label=<gini = 0.0<br/>samples = 1<br/>value = [0.627, 0.0]<br/>class = No>, fillcolor="#e58139ff"] ;
77 -> 78 ;
79 [label=<gini = 0.322<br/>samples = 2<br/>value = [0.627, 2.476]<br/>class = Yes>, fillcolor="#399de5be"] ;
77 -> 79 ;
80 [label=<gini = -0.0<br/>samples = 3<br/>value = [1.88, 0.0]<br/>class = No>, fillcolor="#e58139ff"] ;
76 -> 80 ;
81 [label=<SMS_received &le; 0.5<br/>gini = 0.462<br/>samples = 13<br/>value = [5.639, 9.904]<br/>class = Yes>, fillcolor="#399de56e"] ;
75 -> 81 ;
82 [label=<Gender &le; 0.5<br/>gini = 0.322<br/>samples = 4<br/>value = [1.253, 4.952]<br/>class = Yes>, fillcolor="#399de5be"] ;
81 -> 82 ;
83 [label=<Age &le; 3.5<br/>gini = 0.199<br/>samples = 3<br/>value = [0.627, 4.952]<br/>class = Yes>, fillcolor="#399de5df"] ;
82 -> 83 ;
84 [label=<gini = 0.0<br/>samples = 1<br/>value = [0.0, 2.476]<br/>class = Yes>, fillcolor="#399de5ff"] ;
83 -> 84 ;
85 [label=<gini = 0.322<br/>samples = 2<br/>value = [0.627, 2.476]<br/>class = Yes>, fillcolor="#399de5be"] ;
83 -> 85 ;
86 [label=<gini = 0.0<br/>samples = 1<br/>value = [0.627, 0.0]<br/>class = No>, fillcolor="#e58139ff"] ;
82 -> 86 ;
87 [label=<Gender &le; 0.5<br/>gini = 0.498<br/>samples = 9<br/>value = [4.386, 4.952]<br/>class = Yes>, fillcolor="#399de51d"] ;
81 -> 87 ;
88 [label=<gini = 0.0<br/>samples = 3<br/>value = [1.88, 0.0]<br/>class = No>, fillcolor="#e58139ff"] ;
87 -> 88 ;
89 [label=<Age &le; 3.5<br/>gini = 0.446<br/>samples = 6<br/>value = [2.506, 4.952]<br/>class = Yes>, fillcolor="#399de57e"] ;
87 -> 89 ;
90 [label=<ScheduledDay &le; 14.5<br/>gini = 0.399<br/>samples = 5<br/>value = [1.88, 4.952]<br/>class = Yes>, fillcolor="#399de59e"] ;
89 -> 90 ;
91 [label=<gini = 0.0<br/>samples = 1<br/>value = [0.0, 2.476]<br/>class = Yes>, fillcolor="#399de5ff"] ;
90 -> 91 ;
92 [label=<gini = 0.491<br/>samples = 4<br/>value = [1.88, 2.476]<br/>class = Yes>, fillcolor="#399de53d"] ;
90 -> 92 ;
93 [label=<gini = 0.0<br/>samples = 1<br/>value = [0.627, 0.0]<br/>class = No>, fillcolor="#e58139ff"] ;
89 -> 93 ;
94 [label=<gini = 0.0<br/>samples = 2<br/>value = [1.253, 0.0]<br/>class = No>, fillcolor="#e58139ff"] ;
74 -> 94 ;
95 [label=<gini = 0.0<br/>samples = 6<br/>value = [3.759, 0.0]<br/>class = No>, fillcolor="#e58139ff"] ;
67 -> 95 ;
96 [label=<ScheduledDay &le; 14.5<br/>gini = 0.454<br/>samples = 268<br/>value = [114.025, 212.944]<br/>class = Yes>, fillcolor="#399de576"] ;
66 -> 96 ;
97 [label=<Age &le; 11.5<br/>gini = 0.476<br/>samples = 159<br/>value = [71.422, 111.424]<br/>class = Yes>, fillcolor="#399de55c"] ;
96 -> 97 ;
98 [label=<ScheduledDay &le; 12.5<br/>gini = 0.495<br/>samples = 29<br/>value = [15.036, 12.38]<br/>class = No>, fillcolor="#e581392d"] ;
97 -> 98 ;
99 [label=<Age &le; 10.5<br/>gini = 0.479<br/>samples = 18<br/>value = [8.145, 12.38]<br/>class = Yes>, fillcolor="#399de557"] ;
98 -> 99 ;
100 [label=<ScheduledDay &le; 10.5<br/>gini = 0.459<br/>samples = 16<br/>value = [6.892, 12.38]<br/>class = Yes>, fillcolor="#399de571"] ;
99 -> 100 ;
101 [label=<gini = 0.0<br/>samples = 1<br/>value = [0.627, 0.0]<br/>class = No>, fillcolor="#e58139ff"] ;
100 -> 101 ;
102 [label=<SMS_received &le; 0.5<br/>gini = 0.446<br/>samples = 15<br/>value = [6.265, 12.38]<br/>class = Yes>, fillcolor="#399de57e"] ;
100 -> 102 ;
103 [label=<Age &le; 6.5<br/>gini = 0.322<br/>samples = 4<br/>value = [1.253, 4.952]<br/>class = Yes>, fillcolor="#399de5be"] ;
102 -> 103 ;
104 [label=<gini = 0.0<br/>samples = 1<br/>value = [0.627, 0.0]<br/>class = No>, fillcolor="#e58139ff"] ;
103 -> 104 ;
105 [label=<Age &le; 8.5<br/>gini = 0.199<br/>samples = 3<br/>value = [0.627, 4.952]<br/>class = Yes>, fillcolor="#399de5df"] ;
103 -> 105 ;
106 [label=<gini = 0.0<br/>samples = 1<br/>value = [0.0, 2.476]<br/>class = Yes>, fillcolor="#399de5ff"] ;
105 -> 106 ;
107 [label=<ScheduledDay &le; 11.5<br/>gini = 0.322<br/>samples = 2<br/>value = [0.627, 2.476]<br/>class = Yes>, fillcolor="#399de5be"] ;
105 -> 107 ;
108 [label=<gini = 0.0<br/>samples = 1<br/>value = [0.0, 2.476]<br/>class = Yes>, fillcolor="#399de5ff"] ;
107 -> 108 ;
109 [label=<gini = 0.0<br/>samples = 1<br/>value = [0.627, 0.0]<br/>class = No>, fillcolor="#e58139ff"] ;
107 -> 109 ;
110 [label=<Age &le; 6.5<br/>gini = 0.481<br/>samples = 11<br/>value = [5.012, 7.428]<br/>class = Yes>, fillcolor="#399de553"] ;
102 -> 110 ;
111 [label=<gini = 0.0<br/>samples = 1<br/>value = [0.0, 2.476]<br/>class = Yes>, fillcolor="#399de5ff"] ;
110 -> 111 ;
112 [label=<Age &le; 9.5<br/>gini = 0.5<br/>samples = 10<br/>value = [5.012, 4.952]<br/>class = No>, fillcolor="#e5813903"] ;
110 -> 112 ;
113 [label=<Age &le; 7.5<br/>gini = 0.491<br/>samples = 8<br/>value = [3.759, 4.952]<br/>class = Yes>, fillcolor="#399de53d"] ;
112 -> 113 ;
114 [label=<gini = 0.0<br/>samples = 2<br/>value = [1.253, 0.0]<br/>class = No>, fillcolor="#e58139ff"] ;
113 -> 114 ;
115 [label=<Gender &le; 0.5<br/>gini = 0.446<br/>samples = 6<br/>value = [2.506, 4.952]<br/>class = Yes>, fillcolor="#399de57e"] ;
113 -> 115 ;
116 [label=<gini = 0.0<br/>samples = 1<br/>value = [0.0, 2.476]<br/>class = Yes>, fillcolor="#399de5ff"] ;
115 -> 116 ;
117 [label=<Age &le; 8.5<br/>gini = 0.5<br/>samples = 5<br/>value = [2.506, 2.476]<br/>class = No>, fillcolor="#e5813903"] ;
115 -> 117 ;
118 [label=<gini = 0.0<br/>samples = 3<br/>value = [1.88, 0.0]<br/>class = No>, fillcolor="#e58139ff"] ;
117 -> 118 ;
119 [label=<gini = 0.322<br/>samples = 2<br/>value = [0.627, 2.476]<br/>class = Yes>, fillcolor="#399de5be"] ;
117 -> 119 ;
120 [label=<gini = -0.0<br/>samples = 2<br/>value = [1.253, 0.0]<br/>class = No>, fillcolor="#e58139ff"] ;
112 -> 120 ;
121 [label=<gini = -0.0<br/>samples = 2<br/>value = [1.253, 0.0]<br/>class = No>, fillcolor="#e58139ff"] ;
99 -> 121 ;
122 [label=<gini = 0.0<br/>samples = 11<br/>value = [6.892, 0.0]<br/>class = No>, fillcolor="#e58139ff"] ;
98 -> 122 ;
123 [label=<Gender &le; 0.5<br/>gini = 0.462<br/>samples = 130<br/>value = [56.386, 99.044]<br/>class = Yes>, fillcolor="#399de56e"] ;
97 -> 123 ;
124 [label=<Age &le; 19.5<br/>gini = 0.374<br/>samples = 30<br/>value = [10.651, 32.189]<br/>class = Yes>, fillcolor="#399de5ab"] ;
123 -> 124 ;
125 [label=<ScheduledDay &le; 10.5<br/>gini = 0.247<br/>samples = 15<br/>value = [3.759, 22.285]<br/>class = Yes>, fillcolor="#399de5d4"] ;
124 -> 125 ;
126 [label=<gini = 0.0<br/>samples = 1<br/>value = [0.627, 0.0]<br/>class = No>, fillcolor="#e58139ff"] ;
125 -> 126 ;
127 [label=<Age &le; 13.5<br/>gini = 0.216<br/>samples = 14<br/>value = [3.133, 22.285]<br/>class = Yes>, fillcolor="#399de5db"] ;
125 -> 127 ;
128 [label=<ScheduledDay &le; 12.5<br/>gini = 0.399<br/>samples = 5<br/>value = [1.88, 4.952]<br/>class = Yes>, fillcolor="#399de59e"] ;
127 -> 128 ;
129 [label=<ScheduledDay &le; 11.5<br/>gini = 0.199<br/>samples = 3<br/>value = [0.627, 4.952]<br/>class = Yes>, fillcolor="#399de5df"] ;
128 -> 129 ;
130 [label=<gini = 0.0<br/>samples = 1<br/>value = [0.0, 2.476]<br/>class = Yes>, fillcolor="#399de5ff"] ;
129 -> 130 ;
131 [label=<Age &le; 12.5<br/>gini = 0.322<br/>samples = 2<br/>value = [0.627, 2.476]<br/>class = Yes>, fillcolor="#399de5be"] ;
129 -> 131 ;
132 [label=<gini = 0.0<br/>samples = 1<br/>value = [0.0, 2.476]<br/>class = Yes>, fillcolor="#399de5ff"] ;
131 -> 132 ;
133 [label=<gini = 0.0<br/>samples = 1<br/>value = [0.627, 0.0]<br/>class = No>, fillcolor="#e58139ff"] ;
131 -> 133 ;
134 [label=<gini = 0.0<br/>samples = 2<br/>value = [1.253, 0.0]<br/>class = No>, fillcolor="#e58139ff"] ;
128 -> 134 ;
135 [label=<ScheduledDay &le; 11.5<br/>gini = 0.126<br/>samples = 9<br/>value = [1.253, 17.333]<br/>class = Yes>, fillcolor="#399de5ed"] ;
127 -> 135 ;
136 [label=<gini = 0.0<br/>samples = 1<br/>value = [0.627, 0.0]<br/>class = No>, fillcolor="#e58139ff"] ;
135 -> 136 ;
137 [label=<SMS_received &le; 0.5<br/>gini = 0.067<br/>samples = 8<br/>value = [0.627, 17.333]<br/>class = Yes>, fillcolor="#399de5f6"] ;
135 -> 137 ;
138 [label=<Age &le; 14.5<br/>gini = 0.143<br/>samples = 4<br/>value = [0.627, 7.428]<br/>class = Yes>, fillcolor="#399de5e9"] ;
137 -> 138 ;
139 [label=<gini = 0.0<br/>samples = 1<br/>value = [0.0, 2.476]<br/>class = Yes>, fillcolor="#399de5ff"] ;
138 -> 139 ;
140 [label=<Age &le; 16.5<br/>gini = 0.199<br/>samples = 3<br/>value = [0.627, 4.952]<br/>class = Yes>, fillcolor="#399de5df"] ;
138 -> 140 ;
141 [label=<ScheduledDay &le; 12.5<br/>gini = 0.322<br/>samples = 2<br/>value = [0.627, 2.476]<br/>class = Yes>, fillcolor="#399de5be"] ;
140 -> 141 ;
142 [label=<gini = 0.0<br/>samples = 1<br/>value = [0.0, 2.476]<br/>class = Yes>, fillcolor="#399de5ff"] ;
141 -> 142 ;
143 [label=<gini = 0.0<br/>samples = 1<br/>value = [0.627, 0.0]<br/>class = No>, fillcolor="#e58139ff"] ;
141 -> 143 ;
144 [label=<gini = 0.0<br/>samples = 1<br/>value = [0.0, 2.476]<br/>class = Yes>, fillcolor="#399de5ff"] ;
140 -> 144 ;
145 [label=<gini = 0.0<br/>samples = 4<br/>value = [0.0, 9.904]<br/>class = Yes>, fillcolor="#399de5ff"] ;
137 -> 145 ;
146 [label=<Age &le; 28.0<br/>gini = 0.484<br/>samples = 15<br/>value = [6.892, 9.904]<br/>class = Yes>, fillcolor="#399de54e"] ;
124 -> 146 ;
147 [label=<Age &le; 25.5<br/>gini = 0.499<br/>samples = 14<br/>value = [6.892, 7.428]<br/>class = Yes>, fillcolor="#399de512"] ;
146 -> 147 ;
148 [label=<Age &le; 24.5<br/>gini = 0.491<br/>samples = 12<br/>value = [5.639, 7.428]<br/>class = Yes>, fillcolor="#399de53d"] ;
147 -> 148 ;
149 [label=<ScheduledDay &le; 12.5<br/>gini = 0.498<br/>samples = 11<br/>value = [5.639, 4.952]<br/>class = No>, fillcolor="#e581391f"] ;
148 -> 149 ;
150 [label=<ScheduledDay &le; 9.5<br/>gini = 0.399<br/>samples = 5<br/>value = [1.88, 4.952]<br/>class = Yes>, fillcolor="#399de59e"] ;
149 -> 150 ;
151 [label=<gini = 0.0<br/>samples = 1<br/>value = [0.627, 0.0]<br/>class = No>, fillcolor="#e58139ff"] ;
150 -> 151 ;
152 [label=<Age &le; 22.5<br/>gini = 0.322<br/>samples = 4<br/>value = [1.253, 4.952]<br/>class = Yes>, fillcolor="#399de5be"] ;
150 -> 152 ;
153 [label=<ScheduledDay &le; 10.5<br/>gini = 0.199<br/>samples = 3<br/>value = [0.627, 4.952]<br/>class = Yes>, fillcolor="#399de5df"] ;
152 -> 153 ;
154 [label=<gini = 0.0<br/>samples = 1<br/>value = [0.0, 2.476]<br/>class = Yes>, fillcolor="#399de5ff"] ;
153 -> 154 ;
155 [label=<ScheduledDay &le; 11.5<br/>gini = 0.322<br/>samples = 2<br/>value = [0.627, 2.476]<br/>class = Yes>, fillcolor="#399de5be"] ;
153 -> 155 ;
156 [label=<gini = 0.0<br/>samples = 1<br/>value = [0.627, 0.0]<br/>class = No>, fillcolor="#e58139ff"] ;
155 -> 156 ;
157 [label=<gini = 0.0<br/>samples = 1<br/>value = [0.0, 2.476]<br/>class = Yes>, fillcolor="#399de5ff"] ;
155 -> 157 ;
158 [label=<gini = 0.0<br/>samples = 1<br/>value = [0.627, 0.0]<br/>class = No>, fillcolor="#e58139ff"] ;
152 -> 158 ;
159 [label=<gini = -0.0<br/>samples = 6<br/>value = [3.759, 0.0]<br/>class = No>, fillcolor="#e58139ff"] ;
149 -> 159 ;
160 [label=<gini = 0.0<br/>samples = 1<br/>value = [0.0, 2.476]<br/>class = Yes>, fillcolor="#399de5ff"] ;
148 -> 160 ;
161 [label=<gini = -0.0<br/>samples = 2<br/>value = [1.253, 0.0]<br/>class = No>, fillcolor="#e58139ff"] ;
147 -> 161 ;
162 [label=<gini = 0.0<br/>samples = 1<br/>value = [0.0, 2.476]<br/>class = Yes>, fillcolor="#399de5ff"] ;
146 -> 162 ;
163 [label=<ScheduledDay &le; 10.5<br/>gini = 0.482<br/>samples = 100<br/>value = [45.735, 66.855]<br/>class = Yes>, fillcolor="#399de551"] ;
123 -> 163 ;
164 [label=<gini = 0.0<br/>samples = 4<br/>value = [2.506, 0.0]<br/>class = No>, fillcolor="#e58139ff"] ;
163 -> 164 ;
165 [label=<Age &le; 12.5<br/>gini = 0.477<br/>samples = 96<br/>value = [43.229, 66.855]<br/>class = Yes>, fillcolor="#399de55a"] ;
163 -> 165 ;
166 [label=<gini = 0.0<br/>samples = 2<br/>value = [0.0, 4.952]<br/>class = Yes>, fillcolor="#399de5ff"] ;
165 -> 166 ;
167 [label=<Age &le; 16.5<br/>gini = 0.484<br/>samples = 94<br/>value = [43.229, 61.902]<br/>class = Yes>, fillcolor="#399de54d"] ;
165 -> 167 ;
168 [label=<Age &le; 15.5<br/>gini = 0.493<br/>samples = 18<br/>value = [9.398, 7.428]<br/>class = No>, fillcolor="#e5813935"] ;
167 -> 168 ;
169 [label=<SMS_received &le; 0.5<br/>gini = 0.481<br/>samples = 11<br/>value = [5.012, 7.428]<br/>class = Yes>, fillcolor="#399de553"] ;
168 -> 169 ;
170 [label=<gini = 0.0<br/>samples = 3<br/>value = [1.88, 0.0]<br/>class = No>, fillcolor="#e58139ff"] ;
169 -> 170 ;
171 [label=<ScheduledDay &le; 12.5<br/>gini = 0.417<br/>samples = 8<br/>value = [3.133, 7.428]<br/>class = Yes>, fillcolor="#399de593"] ;
169 -> 171 ;
172 [label=<Age &le; 14.0<br/>gini = 0.199<br/>samples = 3<br/>value = [0.627, 4.952]<br/>class = Yes>, fillcolor="#399de5df"] ;
171 -> 172 ;
173 [label=<gini = 0.322<br/>samples = 2<br/>value = [0.627, 2.476]<br/>class = Yes>, fillcolor="#399de5be"] ;
172 -> 173 ;
174 [label=<gini = 0.0<br/>samples = 1<br/>value = [0.0, 2.476]<br/>class = Yes>, fillcolor="#399de5ff"] ;
172 -> 174 ;
175 [label=<ScheduledDay &le; 13.5<br/>gini = 0.5<br/>samples = 5<br/>value = [2.506, 2.476]<br/>class = No>, fillcolor="#e5813903"] ;
171 -> 175 ;
176 [label=<gini = 0.0<br/>samples = 2<br/>value = [1.253, 0.0]<br/>class = No>, fillcolor="#e58139ff"] ;
175 -> 176 ;
177 [label=<gini = 0.446<br/>samples = 3<br/>value = [1.253, 2.476]<br/>class = Yes>, fillcolor="#399de57e"] ;
175 -> 177 ;
178 [label=<gini = -0.0<br/>samples = 7<br/>value = [4.386, 0.0]<br/>class = No>, fillcolor="#e58139ff"] ;
168 -> 178 ;
179 [label=<Age &le; 17.5<br/>gini = 0.473<br/>samples = 76<br/>value = [33.832, 54.474]<br/>class = Yes>, fillcolor="#399de561"] ;
167 -> 179 ;
180 [label=<ScheduledDay &le; 13.5<br/>gini = 0.199<br/>samples = 3<br/>value = [0.627, 4.952]<br/>class = Yes>, fillcolor="#399de5df"] ;
179 -> 180 ;
181 [label=<gini = 0.0<br/>samples = 1<br/>value = [0.627, 0.0]<br/>class = No>, fillcolor="#e58139ff"] ;
180 -> 181 ;
182 [label=<gini = 0.0<br/>samples = 2<br/>value = [0.0, 4.952]<br/>class = Yes>, fillcolor="#399de5ff"] ;
180 -> 182 ;
183 [label=<ScheduledDay &le; 13.5<br/>gini = 0.481<br/>samples = 73<br/>value = [33.205, 49.522]<br/>class = Yes>, fillcolor="#399de554"] ;
179 -> 183 ;
184 [label=<Hipertension &le; 0.5<br/>gini = 0.459<br/>samples = 48<br/>value = [20.675, 37.141]<br/>class = Yes>, fillcolor="#399de571"] ;
183 -> 184 ;
185 [label=<Alcoholism &le; 0.5<br/>gini = 0.455<br/>samples = 47<br/>value = [20.048, 37.141]<br/>class = Yes>, fillcolor="#399de575"] ;
184 -> 185 ;
186 [label=<Age &le; 22.5<br/>gini = 0.451<br/>samples = 46<br/>value = [19.422, 37.141]<br/>class = Yes>, fillcolor="#399de57a"] ;
185 -> 186 ;
187 [label=<ScheduledDay &le; 12.5<br/>gini = 0.407<br/>samples = 18<br/>value = [6.892, 17.333]<br/>class = Yes>, fillcolor="#399de59a"] ;
186 -> 187 ;
188 [label=<Age &le; 19.5<br/>gini = 0.247<br/>samples = 5<br/>value = [1.253, 7.428]<br/>class = Yes>, fillcolor="#399de5d4"] ;
187 -> 188 ;
189 [label=<Age &le; 18.5<br/>gini = 0.446<br/>samples = 3<br/>value = [1.253, 2.476]<br/>class = Yes>, fillcolor="#399de57e"] ;
188 -> 189 ;
190 [label=<gini = 0.322<br/>samples = 2<br/>value = [0.627, 2.476]<br/>class = Yes>, fillcolor="#399de5be"] ;
189 -> 190 ;
191 [label=<gini = 0.0<br/>samples = 1<br/>value = [0.627, 0.0]<br/>class = No>, fillcolor="#e58139ff"] ;
189 -> 191 ;
192 [label=<gini = 0.0<br/>samples = 2<br/>value = [0.0, 4.952]<br/>class = Yes>, fillcolor="#399de5ff"] ;
188 -> 192 ;
193 [label=<SMS_received &le; 0.5<br/>gini = 0.462<br/>samples = 13<br/>value = [5.639, 9.904]<br/>class = Yes>, fillcolor="#399de56e"] ;
187 -> 193 ;
194 [label=<gini = 0.0<br/>samples = 3<br/>value = [1.88, 0.0]<br/>class = No>, fillcolor="#e58139ff"] ;
193 -> 194 ;
195 [label=<Age &le; 20.0<br/>gini = 0.399<br/>samples = 10<br/>value = [3.759, 9.904]<br/>class = Yes>, fillcolor="#399de59e"] ;
193 -> 195 ;
196 [label=<Age &le; 18.5<br/>gini = 0.417<br/>samples = 8<br/>value = [3.133, 7.428]<br/>class = Yes>, fillcolor="#399de593"] ;
195 -> 196 ;
197 [label=<gini = 0.399<br/>samples = 5<br/>value = [1.88, 4.952]<br/>class = Yes>, fillcolor="#399de59e"] ;
196 -> 197 ;
198 [label=<gini = 0.446<br/>samples = 3<br/>value = [1.253, 2.476]<br/>class = Yes>, fillcolor="#399de57e"] ;
196 -> 198 ;
199 [label=<gini = 0.322<br/>samples = 2<br/>value = [0.627, 2.476]<br/>class = Yes>, fillcolor="#399de5be"] ;
195 -> 199 ;
200 [label=<Age &le; 23.5<br/>gini = 0.475<br/>samples = 28<br/>value = [12.53, 19.809]<br/>class = Yes>, fillcolor="#399de55e"] ;
186 -> 200 ;
201 [label=<gini = 0.0<br/>samples = 2<br/>value = [1.253, 0.0]<br/>class = No>, fillcolor="#e58139ff"] ;
200 -> 201 ;
202 [label=<Age &le; 29.5<br/>gini = 0.462<br/>samples = 26<br/>value = [11.277, 19.809]<br/>class = Yes>, fillcolor="#399de56e"] ;
200 -> 202 ;
203 [label=<Age &le; 26.5<br/>gini = 0.481<br/>samples = 22<br/>value = [10.024, 14.857]<br/>class = Yes>, fillcolor="#399de553"] ;
202 -> 203 ;
204 [label=<ScheduledDay &le; 12.0<br/>gini = 0.417<br/>samples = 8<br/>value = [3.133, 7.428]<br/>class = Yes>, fillcolor="#399de593"] ;
203 -> 204 ;
205 [label=<SMS_received &le; 0.5<br/>gini = 0.247<br/>samples = 5<br/>value = [1.253, 7.428]<br/>class = Yes>, fillcolor="#399de5d4"] ;
204 -> 205 ;
206 [label=<gini = 0.0<br/>samples = 1<br/>value = [0.0, 2.476]<br/>class = Yes>, fillcolor="#399de5ff"] ;
205 -> 206 ;
207 [label=<Age &le; 24.5<br/>gini = 0.322<br/>samples = 4<br/>value = [1.253, 4.952]<br/>class = Yes>, fillcolor="#399de5be"] ;
205 -> 207 ;
208 [label=<gini = 0.0<br/>samples = 1<br/>value = [0.627, 0.0]<br/>class = No>, fillcolor="#e58139ff"] ;
207 -> 208 ;
209 [label=<Age &le; 25.5<br/>gini = 0.199<br/>samples = 3<br/>value = [0.627, 4.952]<br/>class = Yes>, fillcolor="#399de5df"] ;
207 -> 209 ;
210 [label=<gini = 0.322<br/>samples = 2<br/>value = [0.627, 2.476]<br/>class = Yes>, fillcolor="#399de5be"] ;
209 -> 210 ;
211 [label=<gini = 0.0<br/>samples = 1<br/>value = [0.0, 2.476]<br/>class = Yes>, fillcolor="#399de5ff"] ;
209 -> 211 ;
212 [label=<gini = -0.0<br/>samples = 3<br/>value = [1.88, 0.0]<br/>class = No>, fillcolor="#e58139ff"] ;
204 -> 212 ;
213 [label=<ScheduledDay &le; 12.5<br/>gini = 0.499<br/>samples = 14<br/>value = [6.892, 7.428]<br/>class = Yes>, fillcolor="#399de512"] ;
203 -> 213 ;
214 [label=<gini = 0.0<br/>samples = 6<br/>value = [3.759, 0.0]<br/>class = No>, fillcolor="#e58139ff"] ;
213 -> 214 ;
215 [label=<SMS_received &le; 0.5<br/>gini = 0.417<br/>samples = 8<br/>value = [3.133, 7.428]<br/>class = Yes>, fillcolor="#399de593"] ;
213 -> 215 ;
216 [label=<gini = 0.0<br/>samples = 1<br/>value = [0.627, 0.0]<br/>class = No>, fillcolor="#e58139ff"] ;
215 -> 216 ;
217 [label=<Age &le; 27.5<br/>gini = 0.377<br/>samples = 7<br/>value = [2.506, 7.428]<br/>class = Yes>, fillcolor="#399de5a9"] ;
215 -> 217 ;
218 [label=<gini = 0.446<br/>samples = 3<br/>value = [1.253, 2.476]<br/>class = Yes>, fillcolor="#399de57e"] ;
217 -> 218 ;
219 [label=<Age &le; 28.5<br/>gini = 0.322<br/>samples = 4<br/>value = [1.253, 4.952]<br/>class = Yes>, fillcolor="#399de5be"] ;
217 -> 219 ;
220 [label=<gini = 0.0<br/>samples = 1<br/>value = [0.0, 2.476]<br/>class = Yes>, fillcolor="#399de5ff"] ;
219 -> 220 ;
221 [label=<gini = 0.446<br/>samples = 3<br/>value = [1.253, 2.476]<br/>class = Yes>, fillcolor="#399de57e"] ;
219 -> 221 ;
222 [label=<ScheduledDay &le; 12.0<br/>gini = 0.322<br/>samples = 4<br/>value = [1.253, 4.952]<br/>class = Yes>, fillcolor="#399de5be"] ;
202 -> 222 ;
223 [label=<gini = 0.0<br/>samples = 1<br/>value = [0.627, 0.0]<br/>class = No>, fillcolor="#e58139ff"] ;
222 -> 223 ;
224 [label=<SMS_received &le; 0.5<br/>gini = 0.199<br/>samples = 3<br/>value = [0.627, 4.952]<br/>class = Yes>, fillcolor="#399de5df"] ;
222 -> 224 ;
225 [label=<gini = 0.0<br/>samples = 1<br/>value = [0.0, 2.476]<br/>class = Yes>, fillcolor="#399de5ff"] ;
224 -> 225 ;
226 [label=<gini = 0.322<br/>samples = 2<br/>value = [0.627, 2.476]<br/>class = Yes>, fillcolor="#399de5be"] ;
224 -> 226 ;
227 [label=<gini = 0.0<br/>samples = 1<br/>value = [0.627, 0.0]<br/>class = No>, fillcolor="#e58139ff"] ;
185 -> 227 ;
228 [label=<gini = 0.0<br/>samples = 1<br/>value = [0.627, 0.0]<br/>class = No>, fillcolor="#e58139ff"] ;
184 -> 228 ;
229 [label=<Age &le; 20.5<br/>gini = 0.5<br/>samples = 25<br/>value = [12.53, 12.38]<br/>class = No>, fillcolor="#e5813903"] ;
183 -> 229 ;
230 [label=<gini = 0.0<br/>samples = 8<br/>value = [5.012, 0.0]<br/>class = No>, fillcolor="#e58139ff"] ;
229 -> 230 ;
231 [label=<Age &le; 28.5<br/>gini = 0.47<br/>samples = 17<br/>value = [7.518, 12.38]<br/>class = Yes>, fillcolor="#399de564"] ;
229 -> 231 ;
232 [label=<Age &le; 27.5<br/>gini = 0.459<br/>samples = 16<br/>value = [6.892, 12.38]<br/>class = Yes>, fillcolor="#399de571"] ;
231 -> 232 ;
233 [label=<SMS_received &le; 0.5<br/>gini = 0.484<br/>samples = 15<br/>value = [6.892, 9.904]<br/>class = Yes>, fillcolor="#399de54e"] ;
232 -> 233 ;
234 [label=<Age &le; 24.0<br/>gini = 0.322<br/>samples = 2<br/>value = [0.627, 2.476]<br/>class = Yes>, fillcolor="#399de5be"] ;
233 -> 234 ;
235 [label=<gini = 0.0<br/>samples = 1<br/>value = [0.627, 0.0]<br/>class = No>, fillcolor="#e58139ff"] ;
234 -> 235 ;
236 [label=<gini = 0.0<br/>samples = 1<br/>value = [0.0, 2.476]<br/>class = Yes>, fillcolor="#399de5ff"] ;
234 -> 236 ;
237 [label=<Age &le; 22.5<br/>gini = 0.496<br/>samples = 13<br/>value = [6.265, 7.428]<br/>class = Yes>, fillcolor="#399de528"] ;
233 -> 237 ;
238 [label=<Age &le; 21.5<br/>gini = 0.399<br/>samples = 5<br/>value = [1.88, 4.952]<br/>class = Yes>, fillcolor="#399de59e"] ;
237 -> 238 ;
239 [label=<gini = 0.446<br/>samples = 3<br/>value = [1.253, 2.476]<br/>class = Yes>, fillcolor="#399de57e"] ;
238 -> 239 ;
240 [label=<gini = 0.322<br/>samples = 2<br/>value = [0.627, 2.476]<br/>class = Yes>, fillcolor="#399de5be"] ;
238 -> 240 ;
241 [label=<Age &le; 26.5<br/>gini = 0.461<br/>samples = 8<br/>value = [4.386, 2.476]<br/>class = No>, fillcolor="#e581396f"] ;
237 -> 241 ;
242 [label=<gini = 0.0<br/>samples = 3<br/>value = [1.88, 0.0]<br/>class = No>, fillcolor="#e58139ff"] ;
241 -> 242 ;
243 [label=<gini = 0.5<br/>samples = 5<br/>value = [2.506, 2.476]<br/>class = No>, fillcolor="#e5813903"] ;
241 -> 243 ;
244 [label=<gini = 0.0<br/>samples = 1<br/>value = [0.0, 2.476]<br/>class = Yes>, fillcolor="#399de5ff"] ;
232 -> 244 ;
245 [label=<gini = -0.0<br/>samples = 1<br/>value = [0.627, 0.0]<br/>class = No>, fillcolor="#e58139ff"] ;
231 -> 245 ;
246 [label=<Age &le; 17.5<br/>gini = 0.416<br/>samples = 109<br/>value = [42.603, 101.52]<br/>class = Yes>, fillcolor="#399de594"] ;
96 -> 246 ;
247 [label=<Age &le; 8.5<br/>gini = 0.472<br/>samples = 55<br/>value = [24.434, 39.617]<br/>class = Yes>, fillcolor="#399de562"] ;
246 -> 247 ;
248 [label=<ScheduledDay &le; 15.5<br/>gini = 0.345<br/>samples = 17<br/>value = [5.639, 19.809]<br/>class = Yes>, fillcolor="#399de5b6"] ;
247 -> 248 ;
249 [label=<Age &le; 6.5<br/>gini = 0.259<br/>samples = 12<br/>value = [3.133, 17.333]<br/>class = Yes>, fillcolor="#399de5d1"] ;
248 -> 249 ;
250 [label=<SMS_received &le; 0.5<br/>gini = 0.399<br/>samples = 5<br/>value = [1.88, 4.952]<br/>class = Yes>, fillcolor="#399de59e"] ;
249 -> 250 ;
251 [label=<gini = 0.0<br/>samples = 1<br/>value = [0.627, 0.0]<br/>class = No>, fillcolor="#e58139ff"] ;
250 -> 251 ;
252 [label=<Gender &le; 0.5<br/>gini = 0.322<br/>samples = 4<br/>value = [1.253, 4.952]<br/>class = Yes>, fillcolor="#399de5be"] ;
250 -> 252 ;
253 [label=<gini = 0.0<br/>samples = 1<br/>value = [0.0, 2.476]<br/>class = Yes>, fillcolor="#399de5ff"] ;
252 -> 253 ;
254 [label=<gini = 0.446<br/>samples = 3<br/>value = [1.253, 2.476]<br/>class = Yes>, fillcolor="#399de57e"] ;
252 -> 254 ;
255 [label=<Gender &le; 0.5<br/>gini = 0.167<br/>samples = 7<br/>value = [1.253, 12.38]<br/>class = Yes>, fillcolor="#399de5e5"] ;
249 -> 255 ;
256 [label=<Age &le; 7.5<br/>gini = 0.247<br/>samples = 5<br/>value = [1.253, 7.428]<br/>class = Yes>, fillcolor="#399de5d4"] ;
255 -> 256 ;
257 [label=<gini = 0.199<br/>samples = 3<br/>value = [0.627, 4.952]<br/>class = Yes>, fillcolor="#399de5df"] ;
256 -> 257 ;
258 [label=<gini = 0.322<br/>samples = 2<br/>value = [0.627, 2.476]<br/>class = Yes>, fillcolor="#399de5be"] ;
256 -> 258 ;
259 [label=<gini = 0.0<br/>samples = 2<br/>value = [0.0, 4.952]<br/>class = Yes>, fillcolor="#399de5ff"] ;
255 -> 259 ;
260 [label=<Age &le; 6.5<br/>gini = 0.5<br/>samples = 5<br/>value = [2.506, 2.476]<br/>class = No>, fillcolor="#e5813903"] ;
248 -> 260 ;
261 [label=<Gender &le; 0.5<br/>gini = 0.322<br/>samples = 2<br/>value = [0.627, 2.476]<br/>class = Yes>, fillcolor="#399de5be"] ;
260 -> 261 ;
262 [label=<gini = 0.0<br/>samples = 1<br/>value = [0.627, 0.0]<br/>class = No>, fillcolor="#e58139ff"] ;
261 -> 262 ;
263 [label=<gini = 0.0<br/>samples = 1<br/>value = [0.0, 2.476]<br/>class = Yes>, fillcolor="#399de5ff"] ;
261 -> 263 ;
264 [label=<gini = 0.0<br/>samples = 3<br/>value = [1.88, 0.0]<br/>class = No>, fillcolor="#e58139ff"] ;
260 -> 264 ;
265 [label=<Age &le; 9.5<br/>gini = 0.5<br/>samples = 38<br/>value = [18.795, 19.809]<br/>class = Yes>, fillcolor="#399de50d"] ;
247 -> 265 ;
266 [label=<gini = 0.0<br/>samples = 3<br/>value = [1.88, 0.0]<br/>class = No>, fillcolor="#e58139ff"] ;
265 -> 266 ;
267 [label=<Age &le; 12.5<br/>gini = 0.497<br/>samples = 35<br/>value = [16.916, 19.809]<br/>class = Yes>, fillcolor="#399de525"] ;
265 -> 267 ;
268 [label=<ScheduledDay &le; 15.5<br/>gini = 0.446<br/>samples = 12<br/>value = [5.012, 9.904]<br/>class = Yes>, fillcolor="#399de57e"] ;
267 -> 268 ;
269 [label=<gini = 0.0<br/>samples = 4<br/>value = [2.506, 0.0]<br/>class = No>, fillcolor="#e58139ff"] ;
268 -> 269 ;
270 [label=<Gender &le; 0.5<br/>gini = 0.322<br/>samples = 8<br/>value = [2.506, 9.904]<br/>class = Yes>, fillcolor="#399de5be"] ;
268 -> 270 ;
271 [label=<Age &le; 10.5<br/>gini = 0.112<br/>samples = 5<br/>value = [0.627, 9.904]<br/>class = Yes>, fillcolor="#399de5ef"] ;
270 -> 271 ;
272 [label=<SMS_received &le; 0.5<br/>gini = 0.199<br/>samples = 3<br/>value = [0.627, 4.952]<br/>class = Yes>, fillcolor="#399de5df"] ;
271 -> 272 ;
273 [label=<gini = 0.0<br/>samples = 1<br/>value = [0.0, 2.476]<br/>class = Yes>, fillcolor="#399de5ff"] ;
272 -> 273 ;
274 [label=<gini = 0.322<br/>samples = 2<br/>value = [0.627, 2.476]<br/>class = Yes>, fillcolor="#399de5be"] ;
272 -> 274 ;
275 [label=<gini = 0.0<br/>samples = 2<br/>value = [0.0, 4.952]<br/>class = Yes>, fillcolor="#399de5ff"] ;
271 -> 275 ;
276 [label=<gini = -0.0<br/>samples = 3<br/>value = [1.88, 0.0]<br/>class = No>, fillcolor="#e58139ff"] ;
270 -> 276 ;
277 [label=<Age &le; 15.5<br/>gini = 0.496<br/>samples = 23<br/>value = [11.904, 9.904]<br/>class = No>, fillcolor="#e581392b"] ;
267 -> 277 ;
278 [label=<gini = 0.0<br/>samples = 7<br/>value = [4.386, 0.0]<br/>class = No>, fillcolor="#e58139ff"] ;
277 -> 278 ;
279 [label=<ScheduledDay &le; 15.5<br/>gini = 0.491<br/>samples = 16<br/>value = [7.518, 9.904]<br/>class = Yes>, fillcolor="#399de53d"] ;
277 -> 279 ;
280 [label=<Handcap &le; 1.0<br/>gini = 0.425<br/>samples = 11<br/>value = [4.386, 9.904]<br/>class = Yes>, fillcolor="#399de58e"] ;
279 -> 280 ;
281 [label=<Age &le; 16.5<br/>gini = 0.399<br/>samples = 10<br/>value = [3.759, 9.904]<br/>class = Yes>, fillcolor="#399de59e"] ;
280 -> 281 ;
282 [label=<Gender &le; 0.5<br/>gini = 0.322<br/>samples = 4<br/>value = [1.253, 4.952]<br/>class = Yes>, fillcolor="#399de5be"] ;
281 -> 282 ;
283 [label=<gini = 0.0<br/>samples = 1<br/>value = [0.0, 2.476]<br/>class = Yes>, fillcolor="#399de5ff"] ;
282 -> 283 ;
284 [label=<gini = 0.446<br/>samples = 3<br/>value = [1.253, 2.476]<br/>class = Yes>, fillcolor="#399de57e"] ;
282 -> 284 ;
285 [label=<SMS_received &le; 0.5<br/>gini = 0.446<br/>samples = 6<br/>value = [2.506, 4.952]<br/>class = Yes>, fillcolor="#399de57e"] ;
281 -> 285 ;
286 [label=<gini = 0.0<br/>samples = 1<br/>value = [0.627, 0.0]<br/>class = No>, fillcolor="#e58139ff"] ;
285 -> 286 ;
287 [label=<gini = 0.399<br/>samples = 5<br/>value = [1.88, 4.952]<br/>class = Yes>, fillcolor="#399de59e"] ;
285 -> 287 ;
288 [label=<gini = 0.0<br/>samples = 1<br/>value = [0.627, 0.0]<br/>class = No>, fillcolor="#e58139ff"] ;
280 -> 288 ;
289 [label=<gini = -0.0<br/>samples = 5<br/>value = [3.133, 0.0]<br/>class = No>, fillcolor="#e58139ff"] ;
279 -> 289 ;
290 [label=<Age &le; 24.5<br/>gini = 0.351<br/>samples = 54<br/>value = [18.169, 61.902]<br/>class = Yes>, fillcolor="#399de5b4"] ;
246 -> 290 ;
291 [label=<Age &le; 18.5<br/>gini = 0.242<br/>samples = 28<br/>value = [6.892, 42.094]<br/>class = Yes>, fillcolor="#399de5d5"] ;
290 -> 291 ;
292 [label=<gini = 0.0<br/>samples = 4<br/>value = [0.0, 9.904]<br/>class = Yes>, fillcolor="#399de5ff"] ;
291 -> 292 ;
293 [label=<Age &le; 20.5<br/>gini = 0.29<br/>samples = 24<br/>value = [6.892, 32.189]<br/>class = Yes>, fillcolor="#399de5c8"] ;
291 -> 293 ;
294 [label=<SMS_received &le; 0.5<br/>gini = 0.446<br/>samples = 9<br/>value = [3.759, 7.428]<br/>class = Yes>, fillcolor="#399de57e"] ;
293 -> 294 ;
295 [label=<gini = 0.0<br/>samples = 1<br/>value = [0.627, 0.0]<br/>class = No>, fillcolor="#e58139ff"] ;
294 -> 295 ;
296 [label=<ScheduledDay &le; 15.5<br/>gini = 0.417<br/>samples = 8<br/>value = [3.133, 7.428]<br/>class = Yes>, fillcolor="#399de593"] ;
294 -> 296 ;
297 [label=<Age &le; 19.5<br/>gini = 0.446<br/>samples = 3<br/>value = [1.253, 2.476]<br/>class = Yes>, fillcolor="#399de57e"] ;
296 -> 297 ;
298 [label=<gini = 0.322<br/>samples = 2<br/>value = [0.627, 2.476]<br/>class = Yes>, fillcolor="#399de5be"] ;
297 -> 298 ;
299 [label=<gini = 0.0<br/>samples = 1<br/>value = [0.627, 0.0]<br/>class = No>, fillcolor="#e58139ff"] ;
297 -> 299 ;
300 [label=<Age &le; 19.5<br/>gini = 0.399<br/>samples = 5<br/>value = [1.88, 4.952]<br/>class = Yes>, fillcolor="#399de59e"] ;
296 -> 300 ;
301 [label=<gini = 0.446<br/>samples = 3<br/>value = [1.253, 2.476]<br/>class = Yes>, fillcolor="#399de57e"] ;
300 -> 301 ;
302 [label=<gini = 0.322<br/>samples = 2<br/>value = [0.627, 2.476]<br/>class = Yes>, fillcolor="#399de5be"] ;
300 -> 302 ;
303 [label=<Gender &le; 0.5<br/>gini = 0.199<br/>samples = 15<br/>value = [3.133, 24.761]<br/>class = Yes>, fillcolor="#399de5df"] ;
293 -> 303 ;
304 [label=<Age &le; 21.5<br/>gini = 0.399<br/>samples = 5<br/>value = [1.88, 4.952]<br/>class = Yes>, fillcolor="#399de59e"] ;
303 -> 304 ;
305 [label=<gini = 0.0<br/>samples = 3<br/>value = [1.88, 0.0]<br/>class = No>, fillcolor="#e58139ff"] ;
304 -> 305 ;
306 [label=<gini = -0.0<br/>samples = 2<br/>value = [0.0, 4.952]<br/>class = Yes>, fillcolor="#399de5ff"] ;
304 -> 306 ;
307 [label=<Age &le; 23.5<br/>gini = 0.112<br/>samples = 10<br/>value = [1.253, 19.809]<br/>class = Yes>, fillcolor="#399de5ef"] ;
303 -> 307 ;
308 [label=<ScheduledDay &le; 15.5<br/>gini = 0.067<br/>samples = 8<br/>value = [0.627, 17.333]<br/>class = Yes>, fillcolor="#399de5f6"] ;
307 -> 308 ;
309 [label=<gini = 0.0<br/>samples = 4<br/>value = [0.0, 9.904]<br/>class = Yes>, fillcolor="#399de5ff"] ;
308 -> 309 ;
310 [label=<Age &le; 21.5<br/>gini = 0.143<br/>samples = 4<br/>value = [0.627, 7.428]<br/>class = Yes>, fillcolor="#399de5e9"] ;
308 -> 310 ;
311 [label=<gini = 0.199<br/>samples = 3<br/>value = [0.627, 4.952]<br/>class = Yes>, fillcolor="#399de5df"] ;
310 -> 311 ;
312 [label=<gini = 0.0<br/>samples = 1<br/>value = [0.0, 2.476]<br/>class = Yes>, fillcolor="#399de5ff"] ;
310 -> 312 ;
313 [label=<gini = 0.322<br/>samples = 2<br/>value = [0.627, 2.476]<br/>class = Yes>, fillcolor="#399de5be"] ;
307 -> 313 ;
314 [label=<Age &le; 25.5<br/>gini = 0.462<br/>samples = 26<br/>value = [11.277, 19.809]<br/>class = Yes>, fillcolor="#399de56e"] ;
290 -> 314 ;
315 [label=<gini = 0.0<br/>samples = 4<br/>value = [2.506, 0.0]<br/>class = No>, fillcolor="#e58139ff"] ;
314 -> 315 ;
316 [label=<Age &le; 27.5<br/>gini = 0.425<br/>samples = 22<br/>value = [8.771, 19.809]<br/>class = Yes>, fillcolor="#399de58e"] ;
314 -> 316 ;
317 [label=<ScheduledDay &le; 15.5<br/>gini = 0.491<br/>samples = 12<br/>value = [5.639, 7.428]<br/>class = Yes>, fillcolor="#399de53d"] ;
316 -> 317 ;
318 [label=<gini = 0.0<br/>samples = 3<br/>value = [1.88, 0.0]<br/>class = No>, fillcolor="#e58139ff"] ;
317 -> 318 ;
319 [label=<SMS_received &le; 0.5<br/>gini = 0.446<br/>samples = 9<br/>value = [3.759, 7.428]<br/>class = Yes>, fillcolor="#399de57e"] ;
317 -> 319 ;
320 [label=<gini = 0.0<br/>samples = 1<br/>value = [0.627, 0.0]<br/>class = No>, fillcolor="#e58139ff"] ;
319 -> 320 ;
321 [label=<Age &le; 26.5<br/>gini = 0.417<br/>samples = 8<br/>value = [3.133, 7.428]<br/>class = Yes>, fillcolor="#399de593"] ;
319 -> 321 ;
322 [label=<gini = 0.0<br/>samples = 1<br/>value = [0.0, 2.476]<br/>class = Yes>, fillcolor="#399de5ff"] ;
321 -> 322 ;
323 [label=<Gender &le; 0.5<br/>gini = 0.475<br/>samples = 7<br/>value = [3.133, 4.952]<br/>class = Yes>, fillcolor="#399de55e"] ;
321 -> 323 ;
324 [label=<gini = 0.322<br/>samples = 2<br/>value = [0.627, 2.476]<br/>class = Yes>, fillcolor="#399de5be"] ;
323 -> 324 ;
325 [label=<gini = 0.5<br/>samples = 5<br/>value = [2.506, 2.476]<br/>class = No>, fillcolor="#e5813903"] ;
323 -> 325 ;
326 [label=<Hipertension &le; 0.5<br/>gini = 0.322<br/>samples = 10<br/>value = [3.133, 12.38]<br/>class = Yes>, fillcolor="#399de5be"] ;
316 -> 326 ;
327 [label=<Gender &le; 0.5<br/>gini = 0.28<br/>samples = 9<br/>value = [2.506, 12.38]<br/>class = Yes>, fillcolor="#399de5cb"] ;
326 -> 327 ;
328 [label=<gini = 0.0<br/>samples = 2<br/>value = [0.0, 4.952]<br/>class = Yes>, fillcolor="#399de5ff"] ;
327 -> 328 ;
329 [label=<SMS_received &le; 0.5<br/>gini = 0.377<br/>samples = 7<br/>value = [2.506, 7.428]<br/>class = Yes>, fillcolor="#399de5a9"] ;
327 -> 329 ;
330 [label=<gini = 0.0<br/>samples = 2<br/>value = [1.253, 0.0]<br/>class = No>, fillcolor="#e58139ff"] ;
329 -> 330 ;
331 [label=<Age &le; 28.5<br/>gini = 0.247<br/>samples = 5<br/>value = [1.253, 7.428]<br/>class = Yes>, fillcolor="#399de5d4"] ;
329 -> 331 ;
332 [label=<gini = 0.0<br/>samples = 2<br/>value = [0.0, 4.952]<br/>class = Yes>, fillcolor="#399de5ff"] ;
331 -> 332 ;
333 [label=<ScheduledDay &le; 15.5<br/>gini = 0.446<br/>samples = 3<br/>value = [1.253, 2.476]<br/>class = Yes>, fillcolor="#399de57e"] ;
331 -> 333 ;
334 [label=<Age &le; 29.5<br/>gini = 0.322<br/>samples = 2<br/>value = [0.627, 2.476]<br/>class = Yes>, fillcolor="#399de5be"] ;
333 -> 334 ;
335 [label=<gini = 0.0<br/>samples = 1<br/>value = [0.627, 0.0]<br/>class = No>, fillcolor="#e58139ff"] ;
334 -> 335 ;
336 [label=<gini = 0.0<br/>samples = 1<br/>value = [0.0, 2.476]<br/>class = Yes>, fillcolor="#399de5ff"] ;
334 -> 336 ;
337 [label=<gini = 0.0<br/>samples = 1<br/>value = [0.627, 0.0]<br/>class = No>, fillcolor="#e58139ff"] ;
333 -> 337 ;
338 [label=<gini = 0.0<br/>samples = 1<br/>value = [0.627, 0.0]<br/>class = No>, fillcolor="#e58139ff"] ;
326 -> 338 ;
339 [label=<Age &le; 12.5<br/>gini = 0.347<br/>samples = 47<br/>value = [15.663, 54.474]<br/>class = Yes>, fillcolor="#399de5b6"] ;
25 -> 339 ;
340 [label=<ScheduledDay &le; 14.5<br/>gini = 0.436<br/>samples = 23<br/>value = [9.398, 19.809]<br/>class = Yes>, fillcolor="#399de586"] ;
339 -> 340 ;
341 [label=<SMS_received &le; 0.5<br/>gini = 0.357<br/>samples = 11<br/>value = [3.759, 12.38]<br/>class = Yes>, fillcolor="#399de5b2"] ;
340 -> 341 ;
342 [label=<gini = 0.0<br/>samples = 1<br/>value = [0.627, 0.0]<br/>class = No>, fillcolor="#e58139ff"] ;
341 -> 342 ;
343 [label=<Age &le; 11.5<br/>gini = 0.322<br/>samples = 10<br/>value = [3.133, 12.38]<br/>class = Yes>, fillcolor="#399de5be"] ;
341 -> 343 ;
344 [label=<Age &le; 10.5<br/>gini = 0.365<br/>samples = 9<br/>value = [3.133, 9.904]<br/>class = Yes>, fillcolor="#399de5ae"] ;
343 -> 344 ;
345 [label=<Age &le; 9.5<br/>gini = 0.322<br/>samples = 8<br/>value = [2.506, 9.904]<br/>class = Yes>, fillcolor="#399de5be"] ;
344 -> 345 ;
346 [label=<Age &le; 8.5<br/>gini = 0.377<br/>samples = 7<br/>value = [2.506, 7.428]<br/>class = Yes>, fillcolor="#399de5a9"] ;
345 -> 346 ;
347 [label=<ScheduledDay &le; 13.5<br/>gini = 0.322<br/>samples = 6<br/>value = [1.88, 7.428]<br/>class = Yes>, fillcolor="#399de5be"] ;
346 -> 347 ;
348 [label=<Age &le; 5.5<br/>gini = 0.491<br/>samples = 4<br/>value = [1.88, 2.476]<br/>class = Yes>, fillcolor="#399de53d"] ;
347 -> 348 ;
349 [label=<gini = 0.0<br/>samples = 1<br/>value = [0.627, 0.0]<br/>class = No>, fillcolor="#e58139ff"] ;
348 -> 349 ;
350 [label=<Gender &le; 0.5<br/>gini = 0.446<br/>samples = 3<br/>value = [1.253, 2.476]<br/>class = Yes>, fillcolor="#399de57e"] ;
348 -> 350 ;
351 [label=<gini = 0.0<br/>samples = 1<br/>value = [0.627, 0.0]<br/>class = No>, fillcolor="#e58139ff"] ;
350 -> 351 ;
352 [label=<gini = 0.322<br/>samples = 2<br/>value = [0.627, 2.476]<br/>class = Yes>, fillcolor="#399de5be"] ;
350 -> 352 ;
353 [label=<gini = 0.0<br/>samples = 2<br/>value = [0.0, 4.952]<br/>class = Yes>, fillcolor="#399de5ff"] ;
347 -> 353 ;
354 [label=<gini = -0.0<br/>samples = 1<br/>value = [0.627, 0.0]<br/>class = No>, fillcolor="#e58139ff"] ;
346 -> 354 ;
355 [label=<gini = 0.0<br/>samples = 1<br/>value = [0.0, 2.476]<br/>class = Yes>, fillcolor="#399de5ff"] ;
345 -> 355 ;
356 [label=<gini = 0.0<br/>samples = 1<br/>value = [0.627, 0.0]<br/>class = No>, fillcolor="#e58139ff"] ;
344 -> 356 ;
357 [label=<gini = 0.0<br/>samples = 1<br/>value = [0.0, 2.476]<br/>class = Yes>, fillcolor="#399de5ff"] ;
343 -> 357 ;
358 [label=<ScheduledDay &le; 15.5<br/>gini = 0.491<br/>samples = 12<br/>value = [5.639, 7.428]<br/>class = Yes>, fillcolor="#399de53d"] ;
340 -> 358 ;
359 [label=<gini = 0.0<br/>samples = 4<br/>value = [2.506, 0.0]<br/>class = No>, fillcolor="#e58139ff"] ;
358 -> 359 ;
360 [label=<Age &le; 10.0<br/>gini = 0.417<br/>samples = 8<br/>value = [3.133, 7.428]<br/>class = Yes>, fillcolor="#399de593"] ;
358 -> 360 ;
361 [label=<Gender &le; 0.5<br/>gini = 0.247<br/>samples = 5<br/>value = [1.253, 7.428]<br/>class = Yes>, fillcolor="#399de5d4"] ;
360 -> 361 ;
362 [label=<Age &le; 1.5<br/>gini = 0.322<br/>samples = 4<br/>value = [1.253, 4.952]<br/>class = Yes>, fillcolor="#399de5be"] ;
361 -> 362 ;
363 [label=<gini = 0.0<br/>samples = 1<br/>value = [0.0, 2.476]<br/>class = Yes>, fillcolor="#399de5ff"] ;
362 -> 363 ;
364 [label=<Age &le; 5.5<br/>gini = 0.446<br/>samples = 3<br/>value = [1.253, 2.476]<br/>class = Yes>, fillcolor="#399de57e"] ;
362 -> 364 ;
365 [label=<gini = 0.0<br/>samples = 1<br/>value = [0.627, 0.0]<br/>class = No>, fillcolor="#e58139ff"] ;
364 -> 365 ;
366 [label=<gini = 0.322<br/>samples = 2<br/>value = [0.627, 2.476]<br/>class = Yes>, fillcolor="#399de5be"] ;
364 -> 366 ;
367 [label=<gini = 0.0<br/>samples = 1<br/>value = [0.0, 2.476]<br/>class = Yes>, fillcolor="#399de5ff"] ;
361 -> 367 ;
368 [label=<gini = -0.0<br/>samples = 3<br/>value = [1.88, 0.0]<br/>class = No>, fillcolor="#e58139ff"] ;
360 -> 368 ;
369 [label=<Handcap &le; 0.5<br/>gini = 0.259<br/>samples = 24<br/>value = [6.265, 34.665]<br/>class = Yes>, fillcolor="#399de5d1"] ;
339 -> 369 ;
370 [label=<Age &le; 29.5<br/>gini = 0.241<br/>samples = 23<br/>value = [5.639, 34.665]<br/>class = Yes>, fillcolor="#399de5d6"] ;
369 -> 370 ;
371 [label=<Age &le; 28.5<br/>gini = 0.221<br/>samples = 22<br/>value = [5.012, 34.665]<br/>class = Yes>, fillcolor="#399de5da"] ;
370 -> 371 ;
372 [label=<Age &le; 27.5<br/>gini = 0.263<br/>samples = 19<br/>value = [5.012, 27.237]<br/>class = Yes>, fillcolor="#399de5d0"] ;
371 -> 372 ;
373 [label=<Age &le; 16.5<br/>gini = 0.239<br/>samples = 18<br/>value = [4.386, 27.237]<br/>class = Yes>, fillcolor="#399de5d6"] ;
372 -> 373 ;
374 [label=<gini = 0.0<br/>samples = 3<br/>value = [0.0, 7.428]<br/>class = Yes>, fillcolor="#399de5ff"] ;
373 -> 374 ;
375 [label=<Gender &le; 0.5<br/>gini = 0.297<br/>samples = 15<br/>value = [4.386, 19.809]<br/>class = Yes>, fillcolor="#399de5c7"] ;
373 -> 375 ;
376 [label=<Age &le; 26.5<br/>gini = 0.143<br/>samples = 4<br/>value = [0.627, 7.428]<br/>class = Yes>, fillcolor="#399de5e9"] ;
375 -> 376 ;
377 [label=<gini = -0.0<br/>samples = 3<br/>value = [0.0, 7.428]<br/>class = Yes>, fillcolor="#399de5ff"] ;
376 -> 377 ;
378 [label=<gini = 0.0<br/>samples = 1<br/>value = [0.627, 0.0]<br/>class = No>, fillcolor="#e58139ff"] ;
376 -> 378 ;
379 [label=<Age &le; 21.5<br/>gini = 0.357<br/>samples = 11<br/>value = [3.759, 12.38]<br/>class = Yes>, fillcolor="#399de5b2"] ;
375 -> 379 ;
380 [label=<Age &le; 17.5<br/>gini = 0.5<br/>samples = 5<br/>value = [2.506, 2.476]<br/>class = No>, fillcolor="#e5813903"] ;
379 -> 380 ;
381 [label=<ScheduledDay &le; 14.0<br/>gini = 0.322<br/>samples = 2<br/>value = [0.627, 2.476]<br/>class = Yes>, fillcolor="#399de5be"] ;
380 -> 381 ;
382 [label=<gini = 0.0<br/>samples = 1<br/>value = [0.0, 2.476]<br/>class = Yes>, fillcolor="#399de5ff"] ;
381 -> 382 ;
383 [label=<gini = 0.0<br/>samples = 1<br/>value = [0.627, 0.0]<br/>class = No>, fillcolor="#e58139ff"] ;
381 -> 383 ;
384 [label=<gini = 0.0<br/>samples = 3<br/>value = [1.88, 0.0]<br/>class = No>, fillcolor="#e58139ff"] ;
380 -> 384 ;
385 [label=<Age &le; 25.0<br/>gini = 0.199<br/>samples = 6<br/>value = [1.253, 9.904]<br/>class = Yes>, fillcolor="#399de5df"] ;
379 -> 385 ;
386 [label=<gini = 0.0<br/>samples = 1<br/>value = [0.0, 2.476]<br/>class = Yes>, fillcolor="#399de5ff"] ;
385 -> 386 ;
387 [label=<Hipertension &le; 0.5<br/>gini = 0.247<br/>samples = 5<br/>value = [1.253, 7.428]<br/>class = Yes>, fillcolor="#399de5d4"] ;
385 -> 387 ;
388 [label=<ScheduledDay &le; 15.0<br/>gini = 0.322<br/>samples = 4<br/>value = [1.253, 4.952]<br/>class = Yes>, fillcolor="#399de5be"] ;
387 -> 388 ;
389 [label=<gini = 0.322<br/>samples = 2<br/>value = [0.627, 2.476]<br/>class = Yes>, fillcolor="#399de5be"] ;
388 -> 389 ;
390 [label=<gini = 0.322<br/>samples = 2<br/>value = [0.627, 2.476]<br/>class = Yes>, fillcolor="#399de5be"] ;
388 -> 390 ;
391 [label=<gini = 0.0<br/>samples = 1<br/>value = [0.0, 2.476]<br/>class = Yes>, fillcolor="#399de5ff"] ;
387 -> 391 ;
392 [label=<gini = -0.0<br/>samples = 1<br/>value = [0.627, 0.0]<br/>class = No>, fillcolor="#e58139ff"] ;
372 -> 392 ;
393 [label=<gini = -0.0<br/>samples = 3<br/>value = [0.0, 7.428]<br/>class = Yes>, fillcolor="#399de5ff"] ;
371 -> 393 ;
394 [label=<gini = -0.0<br/>samples = 1<br/>value = [0.627, 0.0]<br/>class = No>, fillcolor="#e58139ff"] ;
370 -> 394 ;
395 [label=<gini = -0.0<br/>samples = 1<br/>value = [0.627, 0.0]<br/>class = No>, fillcolor="#e58139ff"] ;
369 -> 395 ;
396 [label=<SMS_received &le; 0.5<br/>gini = 0.491<br/>samples = 229<br/>value = [107.76, 141.137]<br/>class = Yes>, fillcolor="#399de53c"] ;
24 -> 396 ;
397 [label=<Age &le; 31.5<br/>gini = 0.361<br/>samples = 40<br/>value = [13.783, 44.57]<br/>class = Yes>, fillcolor="#399de5b0"] ;
396 -> 397 ;
398 [label=<gini = 0.0<br/>samples = 2<br/>value = [1.253, 0.0]<br/>class = No>, fillcolor="#e58139ff"] ;
397 -> 398 ;
399 [label=<Age &le; 37.5<br/>gini = 0.343<br/>samples = 38<br/>value = [12.53, 44.57]<br/>class = Yes>, fillcolor="#399de5b7"] ;
397 -> 399 ;
400 [label=<Handcap &le; 0.5<br/>gini = 0.446<br/>samples = 18<br/>value = [7.518, 14.857]<br/>class = Yes>, fillcolor="#399de57e"] ;
399 -> 400 ;
401 [label=<ScheduledDay &le; 15.5<br/>gini = 0.491<br/>samples = 16<br/>value = [7.518, 9.904]<br/>class = Yes>, fillcolor="#399de53d"] ;
400 -> 401 ;
402 [label=<Age &le; 36.5<br/>gini = 0.475<br/>samples = 14<br/>value = [6.265, 9.904]<br/>class = Yes>, fillcolor="#399de55e"] ;
401 -> 402 ;
403 [label=<Age &le; 35.5<br/>gini = 0.462<br/>samples = 13<br/>value = [5.639, 9.904]<br/>class = Yes>, fillcolor="#399de56e"] ;
402 -> 403 ;
404 [label=<ScheduledDay &le; 14.5<br/>gini = 0.498<br/>samples = 9<br/>value = [4.386, 4.952]<br/>class = Yes>, fillcolor="#399de51d"] ;
403 -> 404 ;
405 [label=<Age &le; 34.5<br/>gini = 0.475<br/>samples = 7<br/>value = [3.133, 4.952]<br/>class = Yes>, fillcolor="#399de55e"] ;
404 -> 405 ;
406 [label=<Gender &le; 0.5<br/>gini = 0.399<br/>samples = 5<br/>value = [1.88, 4.952]<br/>class = Yes>, fillcolor="#399de59e"] ;
405 -> 406 ;
407 [label=<gini = 0.0<br/>samples = 1<br/>value = [0.0, 2.476]<br/>class = Yes>, fillcolor="#399de5ff"] ;
406 -> 407 ;
408 [label=<ScheduledDay &le; 10.5<br/>gini = 0.491<br/>samples = 4<br/>value = [1.88, 2.476]<br/>class = Yes>, fillcolor="#399de53d"] ;
406 -> 408 ;
409 [label=<gini = 0.0<br/>samples = 1<br/>value = [0.0, 2.476]<br/>class = Yes>, fillcolor="#399de5ff"] ;
408 -> 409 ;
410 [label=<gini = 0.0<br/>samples = 3<br/>value = [1.88, 0.0]<br/>class = No>, fillcolor="#e58139ff"] ;
408 -> 410 ;
411 [label=<gini = 0.0<br/>samples = 2<br/>value = [1.253, 0.0]<br/>class = No>, fillcolor="#e58139ff"] ;
405 -> 411 ;
412 [label=<gini = -0.0<br/>samples = 2<br/>value = [1.253, 0.0]<br/>class = No>, fillcolor="#e58139ff"] ;
404 -> 412 ;
413 [label=<ScheduledDay &le; 10.0<br/>gini = 0.322<br/>samples = 4<br/>value = [1.253, 4.952]<br/>class = Yes>, fillcolor="#399de5be"] ;
403 -> 413 ;
414 [label=<gini = 0.0<br/>samples = 1<br/>value = [0.627, 0.0]<br/>class = No>, fillcolor="#e58139ff"] ;
413 -> 414 ;
415 [label=<Scholarship &le; 0.5<br/>gini = 0.199<br/>samples = 3<br/>value = [0.627, 4.952]<br/>class = Yes>, fillcolor="#399de5df"] ;
413 -> 415 ;
416 [label=<gini = 0.0<br/>samples = 2<br/>value = [0.0, 4.952]<br/>class = Yes>, fillcolor="#399de5ff"] ;
415 -> 416 ;
417 [label=<gini = 0.0<br/>samples = 1<br/>value = [0.627, 0.0]<br/>class = No>, fillcolor="#e58139ff"] ;
415 -> 417 ;
418 [label=<gini = -0.0<br/>samples = 1<br/>value = [0.627, 0.0]<br/>class = No>, fillcolor="#e58139ff"] ;
402 -> 418 ;
419 [label=<gini = -0.0<br/>samples = 2<br/>value = [1.253, 0.0]<br/>class = No>, fillcolor="#e58139ff"] ;
401 -> 419 ;
420 [label=<gini = 0.0<br/>samples = 2<br/>value = [0.0, 4.952]<br/>class = Yes>, fillcolor="#399de5ff"] ;
400 -> 420 ;
421 [label=<ScheduledDay &le; 14.5<br/>gini = 0.247<br/>samples = 20<br/>value = [5.012, 29.713]<br/>class = Yes>, fillcolor="#399de5d4"] ;
399 -> 421 ;
422 [label=<Gender &le; 0.5<br/>gini = 0.377<br/>samples = 14<br/>value = [5.012, 14.857]<br/>class = Yes>, fillcolor="#399de5a9"] ;
421 -> 422 ;
423 [label=<Handcap &le; 0.5<br/>gini = 0.167<br/>samples = 7<br/>value = [1.253, 12.38]<br/>class = Yes>, fillcolor="#399de5e5"] ;
422 -> 423 ;
424 [label=<ScheduledDay &le; 13.5<br/>gini = 0.092<br/>samples = 6<br/>value = [0.627, 12.38]<br/>class = Yes>, fillcolor="#399de5f2"] ;
423 -> 424 ;
425 [label=<gini = -0.0<br/>samples = 4<br/>value = [0.0, 9.904]<br/>class = Yes>, fillcolor="#399de5ff"] ;
424 -> 425 ;
426 [label=<Age &le; 40.0<br/>gini = 0.322<br/>samples = 2<br/>value = [0.627, 2.476]<br/>class = Yes>, fillcolor="#399de5be"] ;
424 -> 426 ;
427 [label=<gini = 0.0<br/>samples = 1<br/>value = [0.0, 2.476]<br/>class = Yes>, fillcolor="#399de5ff"] ;
426 -> 427 ;
428 [label=<gini = 0.0<br/>samples = 1<br/>value = [0.627, 0.0]<br/>class = No>, fillcolor="#e58139ff"] ;
426 -> 428 ;
429 [label=<gini = -0.0<br/>samples = 1<br/>value = [0.627, 0.0]<br/>class = No>, fillcolor="#e58139ff"] ;
423 -> 429 ;
430 [label=<Age &le; 38.5<br/>gini = 0.479<br/>samples = 7<br/>value = [3.759, 2.476]<br/>class = No>, fillcolor="#e5813957"] ;
422 -> 430 ;
431 [label=<gini = 0.0<br/>samples = 1<br/>value = [0.0, 2.476]<br/>class = Yes>, fillcolor="#399de5ff"] ;
430 -> 431 ;
432 [label=<gini = -0.0<br/>samples = 6<br/>value = [3.759, 0.0]<br/>class = No>, fillcolor="#e58139ff"] ;
430 -> 432 ;
433 [label=<gini = -0.0<br/>samples = 6<br/>value = [0.0, 14.857]<br/>class = Yes>, fillcolor="#399de5ff"] ;
421 -> 433 ;
434 [label=<Diabetes &le; 0.5<br/>gini = 0.5<br/>samples = 189<br/>value = [93.977, 96.568]<br/>class = Yes>, fillcolor="#399de507"] ;
396 -> 434 ;
435 [label=<Alcoholism &le; 0.5<br/>gini = 0.499<br/>samples = 178<br/>value = [87.085, 96.568]<br/>class = Yes>, fillcolor="#399de519"] ;
434 -> 435 ;
436 [label=<Age &le; 43.5<br/>gini = 0.499<br/>samples = 174<br/>value = [85.832, 91.615]<br/>class = Yes>, fillcolor="#399de510"] ;
435 -> 436 ;
437 [label=<Age &le; 42.5<br/>gini = 0.498<br/>samples = 152<br/>value = [73.928, 84.187]<br/>class = Yes>, fillcolor="#399de51f"] ;
436 -> 437 ;
438 [label=<Age &le; 36.5<br/>gini = 0.5<br/>samples = 139<br/>value = [68.916, 71.807]<br/>class = Yes>, fillcolor="#399de50a"] ;
437 -> 438 ;
439 [label=<ScheduledDay &le; 11.5<br/>gini = 0.493<br/>samples = 78<br/>value = [36.964, 47.046]<br/>class = Yes>, fillcolor="#399de537"] ;
438 -> 439 ;
440 [label=<Gender &le; 0.5<br/>gini = 0.425<br/>samples = 11<br/>value = [4.386, 9.904]<br/>class = Yes>, fillcolor="#399de58e"] ;
439 -> 440 ;
441 [label=<Age &le; 34.0<br/>gini = 0.493<br/>samples = 6<br/>value = [3.133, 2.476]<br/>class = No>, fillcolor="#e5813935"] ;
440 -> 441 ;
442 [label=<gini = 0.0<br/>samples = 4<br/>value = [2.506, 0.0]<br/>class = No>, fillcolor="#e58139ff"] ;
441 -> 442 ;
443 [label=<gini = 0.322<br/>samples = 2<br/>value = [0.627, 2.476]<br/>class = Yes>, fillcolor="#399de5be"] ;
441 -> 443 ;
444 [label=<Age &le; 32.5<br/>gini = 0.247<br/>samples = 5<br/>value = [1.253, 7.428]<br/>class = Yes>, fillcolor="#399de5d4"] ;
440 -> 444 ;
445 [label=<gini = 0.0<br/>samples = 2<br/>value = [0.0, 4.952]<br/>class = Yes>, fillcolor="#399de5ff"] ;
444 -> 445 ;
446 [label=<ScheduledDay &le; 10.5<br/>gini = 0.446<br/>samples = 3<br/>value = [1.253, 2.476]<br/>class = Yes>, fillcolor="#399de57e"] ;
444 -> 446 ;
447 [label=<gini = 0.0<br/>samples = 1<br/>value = [0.627, 0.0]<br/>class = No>, fillcolor="#e58139ff"] ;
446 -> 447 ;
448 [label=<Age &le; 33.5<br/>gini = 0.322<br/>samples = 2<br/>value = [0.627, 2.476]<br/>class = Yes>, fillcolor="#399de5be"] ;
446 -> 448 ;
449 [label=<gini = 0.0<br/>samples = 1<br/>value = [0.627, 0.0]<br/>class = No>, fillcolor="#e58139ff"] ;
448 -> 449 ;
450 [label=<gini = 0.0<br/>samples = 1<br/>value = [0.0, 2.476]<br/>class = Yes>, fillcolor="#399de5ff"] ;
448 -> 450 ;
451 [label=<ScheduledDay &le; 13.5<br/>gini = 0.498<br/>samples = 67<br/>value = [32.579, 37.141]<br/>class = Yes>, fillcolor="#399de51f"] ;
439 -> 451 ;
452 [label=<Age &le; 31.5<br/>gini = 0.493<br/>samples = 24<br/>value = [12.53, 9.904]<br/>class = No>, fillcolor="#e5813935"] ;
451 -> 452 ;
453 [label=<gini = 0.0<br/>samples = 3<br/>value = [1.88, 0.0]<br/>class = No>, fillcolor="#e58139ff"] ;
452 -> 453 ;
454 [label=<Age &le; 34.5<br/>gini = 0.499<br/>samples = 21<br/>value = [10.651, 9.904]<br/>class = No>, fillcolor="#e5813912"] ;
452 -> 454 ;
455 [label=<Age &le; 33.5<br/>gini = 0.479<br/>samples = 14<br/>value = [7.518, 4.952]<br/>class = No>, fillcolor="#e5813957"] ;
454 -> 455 ;
456 [label=<Gender &le; 0.5<br/>gini = 0.5<br/>samples = 10<br/>value = [5.012, 4.952]<br/>class = No>, fillcolor="#e5813903"] ;
455 -> 456 ;
457 [label=<gini = 0.0<br/>samples = 3<br/>value = [1.88, 0.0]<br/>class = No>, fillcolor="#e58139ff"] ;
456 -> 457 ;
458 [label=<Age &le; 32.5<br/>gini = 0.475<br/>samples = 7<br/>value = [3.133, 4.952]<br/>class = Yes>, fillcolor="#399de55e"] ;
456 -> 458 ;
459 [label=<gini = 0.491<br/>samples = 4<br/>value = [1.88, 2.476]<br/>class = Yes>, fillcolor="#399de53d"] ;
458 -> 459 ;
460 [label=<gini = 0.446<br/>samples = 3<br/>value = [1.253, 2.476]<br/>class = Yes>, fillcolor="#399de57e"] ;
458 -> 460 ;
461 [label=<gini = -0.0<br/>samples = 4<br/>value = [2.506, 0.0]<br/>class = No>, fillcolor="#e58139ff"] ;
455 -> 461 ;
462 [label=<Gender &le; 0.5<br/>gini = 0.475<br/>samples = 7<br/>value = [3.133, 4.952]<br/>class = Yes>, fillcolor="#399de55e"] ;
454 -> 462 ;
463 [label=<gini = 0.322<br/>samples = 2<br/>value = [0.627, 2.476]<br/>class = Yes>, fillcolor="#399de5be"] ;
462 -> 463 ;
464 [label=<Scholarship &le; 0.5<br/>gini = 0.5<br/>samples = 5<br/>value = [2.506, 2.476]<br/>class = No>, fillcolor="#e5813903"] ;
462 -> 464 ;
465 [label=<gini = 0.0<br/>samples = 3<br/>value = [1.88, 0.0]<br/>class = No>, fillcolor="#e58139ff"] ;
464 -> 465 ;
466 [label=<ScheduledDay &le; 12.5<br/>gini = 0.322<br/>samples = 2<br/>value = [0.627, 2.476]<br/>class = Yes>, fillcolor="#399de5be"] ;
464 -> 466 ;
467 [label=<gini = 0.0<br/>samples = 1<br/>value = [0.627, 0.0]<br/>class = No>, fillcolor="#e58139ff"] ;
466 -> 467 ;
468 [label=<gini = 0.0<br/>samples = 1<br/>value = [0.0, 2.476]<br/>class = Yes>, fillcolor="#399de5ff"] ;
466 -> 468 ;
469 [label=<Scholarship &le; 0.5<br/>gini = 0.488<br/>samples = 43<br/>value = [20.048, 27.237]<br/>class = Yes>, fillcolor="#399de543"] ;
451 -> 469 ;
470 [label=<Gender &le; 0.5<br/>gini = 0.477<br/>samples = 39<br/>value = [17.542, 27.237]<br/>class = Yes>, fillcolor="#399de55b"] ;
469 -> 470 ;
471 [label=<Hipertension &le; 0.5<br/>gini = 0.377<br/>samples = 7<br/>value = [2.506, 7.428]<br/>class = Yes>, fillcolor="#399de5a9"] ;
470 -> 471 ;
472 [label=<Age &le; 35.0<br/>gini = 0.322<br/>samples = 6<br/>value = [1.88, 7.428]<br/>class = Yes>, fillcolor="#399de5be"] ;
471 -> 472 ;
473 [label=<ScheduledDay &le; 15.5<br/>gini = 0.247<br/>samples = 5<br/>value = [1.253, 7.428]<br/>class = Yes>, fillcolor="#399de5d4"] ;
472 -> 473 ;
474 [label=<Age &le; 32.5<br/>gini = 0.143<br/>samples = 4<br/>value = [0.627, 7.428]<br/>class = Yes>, fillcolor="#399de5e9"] ;
473 -> 474 ;
475 [label=<ScheduledDay &le; 14.5<br/>gini = 0.322<br/>samples = 2<br/>value = [0.627, 2.476]<br/>class = Yes>, fillcolor="#399de5be"] ;
474 -> 475 ;
476 [label=<gini = 0.0<br/>samples = 1<br/>value = [0.0, 2.476]<br/>class = Yes>, fillcolor="#399de5ff"] ;
475 -> 476 ;
477 [label=<gini = 0.0<br/>samples = 1<br/>value = [0.627, 0.0]<br/>class = No>, fillcolor="#e58139ff"] ;
475 -> 477 ;
478 [label=<gini = -0.0<br/>samples = 2<br/>value = [0.0, 4.952]<br/>class = Yes>, fillcolor="#399de5ff"] ;
474 -> 478 ;
479 [label=<gini = -0.0<br/>samples = 1<br/>value = [0.627, 0.0]<br/>class = No>, fillcolor="#e58139ff"] ;
473 -> 479 ;
480 [label=<gini = 0.0<br/>samples = 1<br/>value = [0.627, 0.0]<br/>class = No>, fillcolor="#e58139ff"] ;
472 -> 480 ;
481 [label=<gini = -0.0<br/>samples = 1<br/>value = [0.627, 0.0]<br/>class = No>, fillcolor="#e58139ff"] ;
471 -> 481 ;
482 [label=<Hipertension &le; 0.5<br/>gini = 0.491<br/>samples = 32<br/>value = [15.036, 19.809]<br/>class = Yes>, fillcolor="#399de53d"] ;
470 -> 482 ;
483 [label=<ScheduledDay &le; 15.5<br/>gini = 0.497<br/>samples = 31<br/>value = [15.036, 17.333]<br/>class = Yes>, fillcolor="#399de522"] ;
482 -> 483 ;
484 [label=<Age &le; 35.5<br/>gini = 0.493<br/>samples = 24<br/>value = [12.53, 9.904]<br/>class = No>, fillcolor="#e5813935"] ;
483 -> 484 ;
485 [label=<Age &le; 32.5<br/>gini = 0.424<br/>samples = 20<br/>value = [11.277, 4.952]<br/>class = No>, fillcolor="#e581398f"] ;
484 -> 485 ;
486 [label=<Age &le; 31.5<br/>gini = 0.491<br/>samples = 8<br/>value = [3.759, 4.952]<br/>class = Yes>, fillcolor="#399de53d"] ;
485 -> 486 ;
487 [label=<ScheduledDay &le; 14.5<br/>gini = 0.446<br/>samples = 3<br/>value = [1.253, 2.476]<br/>class = Yes>, fillcolor="#399de57e"] ;
486 -> 487 ;
488 [label=<gini = 0.0<br/>samples = 2<br/>value = [1.253, 0.0]<br/>class = No>, fillcolor="#e58139ff"] ;
487 -> 488 ;
489 [label=<gini = 0.0<br/>samples = 1<br/>value = [0.0, 2.476]<br/>class = Yes>, fillcolor="#399de5ff"] ;
487 -> 489 ;
490 [label=<ScheduledDay &le; 14.5<br/>gini = 0.5<br/>samples = 5<br/>value = [2.506, 2.476]<br/>class = No>, fillcolor="#e5813903"] ;
486 -> 490 ;
491 [label=<gini = 0.322<br/>samples = 2<br/>value = [0.627, 2.476]<br/>class = Yes>, fillcolor="#399de5be"] ;
490 -> 491 ;
492 [label=<gini = 0.0<br/>samples = 3<br/>value = [1.88, 0.0]<br/>class = No>, fillcolor="#e58139ff"] ;
490 -> 492 ;
493 [label=<gini = -0.0<br/>samples = 12<br/>value = [7.518, 0.0]<br/>class = No>, fillcolor="#e58139ff"] ;
485 -> 493 ;
494 [label=<ScheduledDay &le; 14.5<br/>gini = 0.322<br/>samples = 4<br/>value = [1.253, 4.952]<br/>class = Yes>, fillcolor="#399de5be"] ;
484 -> 494 ;
495 [label=<gini = 0.0<br/>samples = 2<br/>value = [0.0, 4.952]<br/>class = Yes>, fillcolor="#399de5ff"] ;
494 -> 495 ;
496 [label=<gini = 0.0<br/>samples = 2<br/>value = [1.253, 0.0]<br/>class = No>, fillcolor="#e58139ff"] ;
494 -> 496 ;
497 [label=<Age &le; 34.5<br/>gini = 0.377<br/>samples = 7<br/>value = [2.506, 7.428]<br/>class = Yes>, fillcolor="#399de5a9"] ;
483 -> 497 ;
498 [label=<Age &le; 33.5<br/>gini = 0.247<br/>samples = 5<br/>value = [1.253, 7.428]<br/>class = Yes>, fillcolor="#399de5d4"] ;
497 -> 498 ;
499 [label=<gini = 0.446<br/>samples = 3<br/>value = [1.253, 2.476]<br/>class = Yes>, fillcolor="#399de57e"] ;
498 -> 499 ;
500 [label=<gini = 0.0<br/>samples = 2<br/>value = [0.0, 4.952]<br/>class = Yes>, fillcolor="#399de5ff"] ;
498 -> 500 ;
501 [label=<gini = -0.0<br/>samples = 2<br/>value = [1.253, 0.0]<br/>class = No>, fillcolor="#e58139ff"] ;
497 -> 501 ;
502 [label=<gini = -0.0<br/>samples = 1<br/>value = [0.0, 2.476]<br/>class = Yes>, fillcolor="#399de5ff"] ;
482 -> 502 ;
503 [label=<gini = 0.0<br/>samples = 4<br/>value = [2.506, 0.0]<br/>class = No>, fillcolor="#e58139ff"] ;
469 -> 503 ;
504 [label=<Age &le; 38.5<br/>gini = 0.492<br/>samples = 61<br/>value = [31.952, 24.761]<br/>class = No>, fillcolor="#e5813939"] ;
438 -> 504 ;
505 [label=<gini = 0.0<br/>samples = 18<br/>value = [11.277, 0.0]<br/>class = No>, fillcolor="#e58139ff"] ;
504 -> 505 ;
506 [label=<ScheduledDay &le; 11.5<br/>gini = 0.496<br/>samples = 43<br/>value = [20.675, 24.761]<br/>class = Yes>, fillcolor="#399de52a"] ;
504 -> 506 ;
507 [label=<gini = 0.0<br/>samples = 8<br/>value = [5.012, 0.0]<br/>class = No>, fillcolor="#e58139ff"] ;
506 -> 507 ;
508 [label=<Age &le; 40.5<br/>gini = 0.475<br/>samples = 35<br/>value = [15.663, 24.761]<br/>class = Yes>, fillcolor="#399de55e"] ;
506 -> 508 ;
509 [label=<ScheduledDay &le; 15.5<br/>gini = 0.399<br/>samples = 20<br/>value = [7.518, 19.809]<br/>class = Yes>, fillcolor="#399de59e"] ;
508 -> 509 ;
510 [label=<Age &le; 39.5<br/>gini = 0.322<br/>samples = 14<br/>value = [4.386, 17.333]<br/>class = Yes>, fillcolor="#399de5be"] ;
509 -> 510 ;
511 [label=<ScheduledDay &le; 12.5<br/>gini = 0.425<br/>samples = 11<br/>value = [4.386, 9.904]<br/>class = Yes>, fillcolor="#399de58e"] ;
510 -> 511 ;
512 [label=<gini = 0.0<br/>samples = 2<br/>value = [1.253, 0.0]<br/>class = No>, fillcolor="#e58139ff"] ;
511 -> 512 ;
513 [label=<Scholarship &le; 0.5<br/>gini = 0.365<br/>samples = 9<br/>value = [3.133, 9.904]<br/>class = Yes>, fillcolor="#399de5ae"] ;
511 -> 513 ;
514 [label=<Gender &le; 0.5<br/>gini = 0.322<br/>samples = 8<br/>value = [2.506, 9.904]<br/>class = Yes>, fillcolor="#399de5be"] ;
513 -> 514 ;
515 [label=<ScheduledDay &le; 14.5<br/>gini = 0.199<br/>samples = 3<br/>value = [0.627, 4.952]<br/>class = Yes>, fillcolor="#399de5df"] ;
514 -> 515 ;
516 [label=<gini = 0.0<br/>samples = 1<br/>value = [0.0, 2.476]<br/>class = Yes>, fillcolor="#399de5ff"] ;
515 -> 516 ;
517 [label=<gini = 0.322<br/>samples = 2<br/>value = [0.627, 2.476]<br/>class = Yes>, fillcolor="#399de5be"] ;
515 -> 517 ;
518 [label=<ScheduledDay &le; 14.0<br/>gini = 0.399<br/>samples = 5<br/>value = [1.88, 4.952]<br/>class = Yes>, fillcolor="#399de59e"] ;
514 -> 518 ;
519 [label=<gini = 0.322<br/>samples = 2<br/>value = [0.627, 2.476]<br/>class = Yes>, fillcolor="#399de5be"] ;
518 -> 519 ;
520 [label=<gini = 0.446<br/>samples = 3<br/>value = [1.253, 2.476]<br/>class = Yes>, fillcolor="#399de57e"] ;
518 -> 520 ;
521 [label=<gini = -0.0<br/>samples = 1<br/>value = [0.627, 0.0]<br/>class = No>, fillcolor="#e58139ff"] ;
513 -> 521 ;
522 [label=<gini = 0.0<br/>samples = 3<br/>value = [0.0, 7.428]<br/>class = Yes>, fillcolor="#399de5ff"] ;
510 -> 522 ;
523 [label=<Age &le; 39.5<br/>gini = 0.493<br/>samples = 6<br/>value = [3.133, 2.476]<br/>class = No>, fillcolor="#e5813935"] ;
509 -> 523 ;
524 [label=<gini = 0.0<br/>samples = 2<br/>value = [1.253, 0.0]<br/>class = No>, fillcolor="#e58139ff"] ;
523 -> 524 ;
525 [label=<gini = 0.491<br/>samples = 4<br/>value = [1.88, 2.476]<br/>class = Yes>, fillcolor="#399de53d"] ;
523 -> 525 ;
526 [label=<Scholarship &le; 0.5<br/>gini = 0.47<br/>samples = 15<br/>value = [8.145, 4.952]<br/>class = No>, fillcolor="#e5813964"] ;
508 -> 526 ;
527 [label=<Age &le; 41.5<br/>gini = 0.358<br/>samples = 14<br/>value = [8.145, 2.476]<br/>class = No>, fillcolor="#e58139b1"] ;
526 -> 527 ;
528 [label=<ScheduledDay &le; 14.0<br/>gini = 0.479<br/>samples = 7<br/>value = [3.759, 2.476]<br/>class = No>, fillcolor="#e5813957"] ;
527 -> 528 ;
529 [label=<gini = 0.0<br/>samples = 3<br/>value = [1.88, 0.0]<br/>class = No>, fillcolor="#e58139ff"] ;
528 -> 529 ;
530 [label=<ScheduledDay &le; 15.5<br/>gini = 0.491<br/>samples = 4<br/>value = [1.88, 2.476]<br/>class = Yes>, fillcolor="#399de53d"] ;
528 -> 530 ;
531 [label=<gini = 0.322<br/>samples = 2<br/>value = [0.627, 2.476]<br/>class = Yes>, fillcolor="#399de5be"] ;
530 -> 531 ;
532 [label=<gini = 0.0<br/>samples = 2<br/>value = [1.253, 0.0]<br/>class = No>, fillcolor="#e58139ff"] ;
530 -> 532 ;
533 [label=<gini = 0.0<br/>samples = 7<br/>value = [4.386, 0.0]<br/>class = No>, fillcolor="#e58139ff"] ;
527 -> 533 ;
534 [label=<gini = -0.0<br/>samples = 1<br/>value = [0.0, 2.476]<br/>class = Yes>, fillcolor="#399de5ff"] ;
526 -> 534 ;
535 [label=<ScheduledDay &le; 11.5<br/>gini = 0.41<br/>samples = 13<br/>value = [5.012, 12.38]<br/>class = Yes>, fillcolor="#399de598"] ;
437 -> 535 ;
536 [label=<gini = 0.0<br/>samples = 2<br/>value = [1.253, 0.0]<br/>class = No>, fillcolor="#e58139ff"] ;
535 -> 536 ;
537 [label=<ScheduledDay &le; 13.5<br/>gini = 0.357<br/>samples = 11<br/>value = [3.759, 12.38]<br/>class = Yes>, fillcolor="#399de5b2"] ;
535 -> 537 ;
538 [label=<gini = 0.0<br/>samples = 3<br/>value = [0.0, 7.428]<br/>class = Yes>, fillcolor="#399de5ff"] ;
537 -> 538 ;
539 [label=<ScheduledDay &le; 14.5<br/>gini = 0.491<br/>samples = 8<br/>value = [3.759, 4.952]<br/>class = Yes>, fillcolor="#399de53d"] ;
537 -> 539 ;
540 [label=<gini = 0.0<br/>samples = 3<br/>value = [1.88, 0.0]<br/>class = No>, fillcolor="#e58139ff"] ;
539 -> 540 ;
541 [label=<Scholarship &le; 0.5<br/>gini = 0.399<br/>samples = 5<br/>value = [1.88, 4.952]<br/>class = Yes>, fillcolor="#399de59e"] ;
539 -> 541 ;
542 [label=<ScheduledDay &le; 15.5<br/>gini = 0.491<br/>samples = 4<br/>value = [1.88, 2.476]<br/>class = Yes>, fillcolor="#399de53d"] ;
541 -> 542 ;
543 [label=<gini = 0.0<br/>samples = 1<br/>value = [0.0, 2.476]<br/>class = Yes>, fillcolor="#399de5ff"] ;
542 -> 543 ;
544 [label=<gini = 0.0<br/>samples = 3<br/>value = [1.88, 0.0]<br/>class = No>, fillcolor="#e58139ff"] ;
542 -> 544 ;
545 [label=<gini = -0.0<br/>samples = 1<br/>value = [0.0, 2.476]<br/>class = Yes>, fillcolor="#399de5ff"] ;
541 -> 545 ;
546 [label=<Age &le; 44.5<br/>gini = 0.473<br/>samples = 22<br/>value = [11.904, 7.428]<br/>class = No>, fillcolor="#e5813960"] ;
436 -> 546 ;
547 [label=<gini = 0.0<br/>samples = 7<br/>value = [4.386, 0.0]<br/>class = No>, fillcolor="#e58139ff"] ;
546 -> 547 ;
548 [label=<Gender &le; 0.5<br/>gini = 0.5<br/>samples = 15<br/>value = [7.518, 7.428]<br/>class = No>, fillcolor="#e5813903"] ;
546 -> 548 ;
549 [label=<gini = 0.0<br/>samples = 4<br/>value = [2.506, 0.0]<br/>class = No>, fillcolor="#e58139ff"] ;
548 -> 549 ;
550 [label=<ScheduledDay &le; 15.5<br/>gini = 0.481<br/>samples = 11<br/>value = [5.012, 7.428]<br/>class = Yes>, fillcolor="#399de553"] ;
548 -> 550 ;
551 [label=<Age &le; 45.5<br/>gini = 0.5<br/>samples = 10<br/>value = [5.012, 4.952]<br/>class = No>, fillcolor="#e5813903"] ;
550 -> 551 ;
552 [label=<ScheduledDay &le; 10.5<br/>gini = 0.446<br/>samples = 6<br/>value = [2.506, 4.952]<br/>class = Yes>, fillcolor="#399de57e"] ;
551 -> 552 ;
553 [label=<gini = 0.0<br/>samples = 1<br/>value = [0.627, 0.0]<br/>class = No>, fillcolor="#e58139ff"] ;
552 -> 553 ;
554 [label=<Hipertension &le; 0.5<br/>gini = 0.399<br/>samples = 5<br/>value = [1.88, 4.952]<br/>class = Yes>, fillcolor="#399de59e"] ;
552 -> 554 ;
555 [label=<ScheduledDay &le; 14.5<br/>gini = 0.322<br/>samples = 4<br/>value = [1.253, 4.952]<br/>class = Yes>, fillcolor="#399de5be"] ;
554 -> 555 ;
556 [label=<gini = 0.322<br/>samples = 2<br/>value = [0.627, 2.476]<br/>class = Yes>, fillcolor="#399de5be"] ;
555 -> 556 ;
557 [label=<gini = 0.322<br/>samples = 2<br/>value = [0.627, 2.476]<br/>class = Yes>, fillcolor="#399de5be"] ;
555 -> 557 ;
558 [label=<gini = 0.0<br/>samples = 1<br/>value = [0.627, 0.0]<br/>class = No>, fillcolor="#e58139ff"] ;
554 -> 558 ;
559 [label=<gini = -0.0<br/>samples = 4<br/>value = [2.506, 0.0]<br/>class = No>, fillcolor="#e58139ff"] ;
551 -> 559 ;
560 [label=<gini = 0.0<br/>samples = 1<br/>value = [0.0, 2.476]<br/>class = Yes>, fillcolor="#399de5ff"] ;
550 -> 560 ;
561 [label=<ScheduledDay &le; 12.5<br/>gini = 0.322<br/>samples = 4<br/>value = [1.253, 4.952]<br/>class = Yes>, fillcolor="#399de5be"] ;
435 -> 561 ;
562 [label=<gini = 0.0<br/>samples = 2<br/>value = [0.0, 4.952]<br/>class = Yes>, fillcolor="#399de5ff"] ;
561 -> 562 ;
563 [label=<gini = 0.0<br/>samples = 2<br/>value = [1.253, 0.0]<br/>class = No>, fillcolor="#e58139ff"] ;
561 -> 563 ;
564 [label=<gini = 0.0<br/>samples = 11<br/>value = [6.892, 0.0]<br/>class = No>, fillcolor="#e58139ff"] ;
434 -> 564 ;
565 [label=<Age &le; 11.5<br/>gini = 0.489<br/>samples = 837<br/>value = [441.065, 329.32]<br/>class = No>, fillcolor="#e5813941"] ;
3 -> 565 ;
566 [label=<Gender &le; 0.5<br/>gini = 0.461<br/>samples = 240<br/>value = [131.568, 74.283]<br/>class = No>, fillcolor="#e581396f"] ;
565 -> 566 ;
567 [label=<Age &le; 9.5<br/>gini = 0.359<br/>samples = 125<br/>value = [72.675, 22.285]<br/>class = No>, fillcolor="#e58139b1"] ;
566 -> 567 ;
568 [label=<Age &le; 0.5<br/>gini = 0.294<br/>samples = 115<br/>value = [68.29, 14.857]<br/>class = No>, fillcolor="#e58139c8"] ;
567 -> 568 ;
569 [label=<SMS_received &le; 0.5<br/>gini = 0.483<br/>samples = 27<br/>value = [14.41, 9.904]<br/>class = No>, fillcolor="#e5813950"] ;
568 -> 569 ;
570 [label=<gini = 0.461<br/>samples = 24<br/>value = [13.157, 7.428]<br/>class = No>, fillcolor="#e581396f"] ;
569 -> 570 ;
571 [label=<gini = 0.446<br/>samples = 3<br/>value = [1.253, 2.476]<br/>class = Yes>, fillcolor="#399de57e"] ;
569 -> 571 ;
572 [label=<Age &le; 4.5<br/>gini = 0.154<br/>samples = 88<br/>value = [53.88, 4.952]<br/>class = No>, fillcolor="#e58139e8"] ;
568 -> 572 ;
573 [label=<Age &le; 3.5<br/>gini = 0.25<br/>samples = 48<br/>value = [28.82, 4.952]<br/>class = No>, fillcolor="#e58139d3"] ;
572 -> 573 ;
574 [label=<Age &le; 1.5<br/>gini = 0.171<br/>samples = 39<br/>value = [23.807, 2.476]<br/>class = No>, fillcolor="#e58139e4"] ;
573 -> 574 ;
575 [label=<SMS_received &le; 0.5<br/>gini = 0.33<br/>samples = 16<br/>value = [9.398, 2.476]<br/>class = No>, fillcolor="#e58139bc"] ;
574 -> 575 ;
576 [label=<gini = 0.358<br/>samples = 14<br/>value = [8.145, 2.476]<br/>class = No>, fillcolor="#e58139b1"] ;
575 -> 576 ;
577 [label=<gini = 0.0<br/>samples = 2<br/>value = [1.253, 0.0]<br/>class = No>, fillcolor="#e58139ff"] ;
575 -> 577 ;
578 [label=<gini = 0.0<br/>samples = 23<br/>value = [14.41, 0.0]<br/>class = No>, fillcolor="#e58139ff"] ;
574 -> 578 ;
579 [label=<SMS_received &le; 0.5<br/>gini = 0.443<br/>samples = 9<br/>value = [5.012, 2.476]<br/>class = No>, fillcolor="#e5813981"] ;
573 -> 579 ;
580 [label=<gini = 0.461<br/>samples = 8<br/>value = [4.386, 2.476]<br/>class = No>, fillcolor="#e581396f"] ;
579 -> 580 ;
581 [label=<gini = 0.0<br/>samples = 1<br/>value = [0.627, 0.0]<br/>class = No>, fillcolor="#e58139ff"] ;
579 -> 581 ;
582 [label=<gini = 0.0<br/>samples = 40<br/>value = [25.06, 0.0]<br/>class = No>, fillcolor="#e58139ff"] ;
572 -> 582 ;
583 [label=<Scholarship &le; 0.5<br/>gini = 0.467<br/>samples = 10<br/>value = [4.386, 7.428]<br/>class = Yes>, fillcolor="#399de568"] ;
567 -> 583 ;
584 [label=<Age &le; 10.5<br/>gini = 0.417<br/>samples = 8<br/>value = [3.133, 7.428]<br/>class = Yes>, fillcolor="#399de593"] ;
583 -> 584 ;
585 [label=<gini = 0.399<br/>samples = 5<br/>value = [1.88, 4.952]<br/>class = Yes>, fillcolor="#399de59e"] ;
584 -> 585 ;
586 [label=<gini = 0.446<br/>samples = 3<br/>value = [1.253, 2.476]<br/>class = Yes>, fillcolor="#399de57e"] ;
584 -> 586 ;
587 [label=<gini = -0.0<br/>samples = 2<br/>value = [1.253, 0.0]<br/>class = No>, fillcolor="#e58139ff"] ;
583 -> 587 ;
588 [label=<Age &le; 9.5<br/>gini = 0.498<br/>samples = 115<br/>value = [58.892, 51.998]<br/>class = No>, fillcolor="#e581391e"] ;
566 -> 588 ;
589 [label=<Age &le; 4.5<br/>gini = 0.5<br/>samples = 101<br/>value = [50.121, 51.998]<br/>class = Yes>, fillcolor="#399de509"] ;
588 -> 589 ;
590 [label=<Age &le; 3.5<br/>gini = 0.494<br/>samples = 67<br/>value = [31.952, 39.617]<br/>class = Yes>, fillcolor="#399de531"] ;
589 -> 590 ;
591 [label=<Age &le; 0.5<br/>gini = 0.497<br/>samples = 62<br/>value = [30.073, 34.665]<br/>class = Yes>, fillcolor="#399de522"] ;
590 -> 591 ;
592 [label=<SMS_received &le; 0.5<br/>gini = 0.471<br/>samples = 24<br/>value = [10.651, 17.333]<br/>class = Yes>, fillcolor="#399de562"] ;
591 -> 592 ;
593 [label=<gini = 0.456<br/>samples = 22<br/>value = [9.398, 17.333]<br/>class = Yes>, fillcolor="#399de575"] ;
592 -> 593 ;
594 [label=<gini = 0.0<br/>samples = 2<br/>value = [1.253, 0.0]<br/>class = No>, fillcolor="#e58139ff"] ;
592 -> 594 ;
595 [label=<Scholarship &le; 0.5<br/>gini = 0.498<br/>samples = 38<br/>value = [19.422, 17.333]<br/>class = No>, fillcolor="#e581391b"] ;
591 -> 595 ;
596 [label=<SMS_received &le; 0.5<br/>gini = 0.497<br/>samples = 34<br/>value = [17.542, 14.857]<br/>class = No>, fillcolor="#e5813927"] ;
595 -> 596 ;
597 [label=<Age &le; 2.5<br/>gini = 0.5<br/>samples = 31<br/>value = [15.663, 14.857]<br/>class = No>, fillcolor="#e581390d"] ;
596 -> 597 ;
598 [label=<Age &le; 1.5<br/>gini = 0.498<br/>samples = 22<br/>value = [11.277, 9.904]<br/>class = No>, fillcolor="#e581391f"] ;
597 -> 598 ;
599 [label=<gini = 0.5<br/>samples = 10<br/>value = [5.012, 4.952]<br/>class = No>, fillcolor="#e5813903"] ;
598 -> 599 ;
600 [label=<gini = 0.493<br/>samples = 12<br/>value = [6.265, 4.952]<br/>class = No>, fillcolor="#e5813935"] ;
598 -> 600 ;
601 [label=<gini = 0.498<br/>samples = 9<br/>value = [4.386, 4.952]<br/>class = Yes>, fillcolor="#399de51d"] ;
597 -> 601 ;
602 [label=<gini = 0.0<br/>samples = 3<br/>value = [1.88, 0.0]<br/>class = No>, fillcolor="#e58139ff"] ;
596 -> 602 ;
603 [label=<SMS_received &le; 0.5<br/>gini = 0.491<br/>samples = 4<br/>value = [1.88, 2.476]<br/>class = Yes>, fillcolor="#399de53d"] ;
595 -> 603 ;
604 [label=<gini = 0.0<br/>samples = 2<br/>value = [1.253, 0.0]<br/>class = No>, fillcolor="#e58139ff"] ;
603 -> 604 ;
605 [label=<gini = 0.322<br/>samples = 2<br/>value = [0.627, 2.476]<br/>class = Yes>, fillcolor="#399de5be"] ;
603 -> 605 ;
606 [label=<SMS_received &le; 0.5<br/>gini = 0.399<br/>samples = 5<br/>value = [1.88, 4.952]<br/>class = Yes>, fillcolor="#399de59e"] ;
590 -> 606 ;
607 [label=<gini = 0.491<br/>samples = 4<br/>value = [1.88, 2.476]<br/>class = Yes>, fillcolor="#399de53d"] ;
606 -> 607 ;
608 [label=<gini = -0.0<br/>samples = 1<br/>value = [0.0, 2.476]<br/>class = Yes>, fillcolor="#399de5ff"] ;
606 -> 608 ;
609 [label=<Scholarship &le; 0.5<br/>gini = 0.482<br/>samples = 34<br/>value = [18.169, 12.38]<br/>class = No>, fillcolor="#e5813951"] ;
589 -> 609 ;
610 [label=<Age &le; 6.5<br/>gini = 0.424<br/>samples = 30<br/>value = [16.916, 7.428]<br/>class = No>, fillcolor="#e581398f"] ;
609 -> 610 ;
611 [label=<gini = 0.0<br/>samples = 9<br/>value = [5.639, 0.0]<br/>class = No>, fillcolor="#e58139ff"] ;
610 -> 611 ;
612 [label=<Age &le; 7.5<br/>gini = 0.479<br/>samples = 21<br/>value = [11.277, 7.428]<br/>class = No>, fillcolor="#e5813957"] ;
610 -> 612 ;
613 [label=<gini = 0.498<br/>samples = 9<br/>value = [4.386, 4.952]<br/>class = Yes>, fillcolor="#399de51d"] ;
612 -> 613 ;
614 [label=<Age &le; 8.5<br/>gini = 0.389<br/>samples = 12<br/>value = [6.892, 2.476]<br/>class = No>, fillcolor="#e58139a3"] ;
612 -> 614 ;
615 [label=<gini = 0.443<br/>samples = 9<br/>value = [5.012, 2.476]<br/>class = No>, fillcolor="#e5813981"] ;
614 -> 615 ;
616 [label=<gini = -0.0<br/>samples = 3<br/>value = [1.88, 0.0]<br/>class = No>, fillcolor="#e58139ff"] ;
614 -> 616 ;
617 [label=<Age &le; 8.0<br/>gini = 0.322<br/>samples = 4<br/>value = [1.253, 4.952]<br/>class = Yes>, fillcolor="#399de5be"] ;
609 -> 617 ;
618 [label=<Age &le; 6.5<br/>gini = 0.446<br/>samples = 3<br/>value = [1.253, 2.476]<br/>class = Yes>, fillcolor="#399de57e"] ;
617 -> 618 ;
619 [label=<gini = 0.322<br/>samples = 2<br/>value = [0.627, 2.476]<br/>class = Yes>, fillcolor="#399de5be"] ;
618 -> 619 ;
620 [label=<gini = 0.0<br/>samples = 1<br/>value = [0.627, 0.0]<br/>class = No>, fillcolor="#e58139ff"] ;
618 -> 620 ;
621 [label=<gini = 0.0<br/>samples = 1<br/>value = [0.0, 2.476]<br/>class = Yes>, fillcolor="#399de5ff"] ;
617 -> 621 ;
622 [label=<gini = 0.0<br/>samples = 14<br/>value = [8.771, 0.0]<br/>class = No>, fillcolor="#e58139ff"] ;
588 -> 622 ;
623 [label=<Age &le; 23.5<br/>gini = 0.495<br/>samples = 597<br/>value = [309.497, 255.038]<br/>class = No>, fillcolor="#e581392d"] ;
565 -> 623 ;
624 [label=<Hipertension &le; 0.5<br/>gini = 0.494<br/>samples = 204<br/>value = [97.109, 121.329]<br/>class = Yes>, fillcolor="#399de533"] ;
623 -> 624 ;
625 [label=<Age &le; 22.5<br/>gini = 0.496<br/>samples = 202<br/>value = [97.109, 116.376]<br/>class = Yes>, fillcolor="#399de52a"] ;
624 -> 625 ;
626 [label=<Age &le; 14.5<br/>gini = 0.499<br/>samples = 188<br/>value = [92.097, 101.52]<br/>class = Yes>, fillcolor="#399de518"] ;
625 -> 626 ;
627 [label=<Gender &le; 0.5<br/>gini = 0.471<br/>samples = 41<br/>value = [18.169, 29.713]<br/>class = Yes>, fillcolor="#399de563"] ;
626 -> 627 ;
628 [label=<SMS_received &le; 0.5<br/>gini = 0.497<br/>samples = 17<br/>value = [8.771, 7.428]<br/>class = No>, fillcolor="#e5813927"] ;
627 -> 628 ;
629 [label=<Age &le; 13.5<br/>gini = 0.461<br/>samples = 16<br/>value = [8.771, 4.952]<br/>class = No>, fillcolor="#e581396f"] ;
628 -> 629 ;
630 [label=<gini = 0.0<br/>samples = 9<br/>value = [5.639, 0.0]<br/>class = No>, fillcolor="#e58139ff"] ;
629 -> 630 ;
631 [label=<Scholarship &le; 0.5<br/>gini = 0.475<br/>samples = 7<br/>value = [3.133, 4.952]<br/>class = Yes>, fillcolor="#399de55e"] ;
629 -> 631 ;
632 [label=<gini = 0.446<br/>samples = 6<br/>value = [2.506, 4.952]<br/>class = Yes>, fillcolor="#399de57e"] ;
631 -> 632 ;
633 [label=<gini = 0.0<br/>samples = 1<br/>value = [0.627, 0.0]<br/>class = No>, fillcolor="#e58139ff"] ;
631 -> 633 ;
634 [label=<gini = 0.0<br/>samples = 1<br/>value = [0.0, 2.476]<br/>class = Yes>, fillcolor="#399de5ff"] ;
628 -> 634 ;
635 [label=<Handcap &le; 0.5<br/>gini = 0.417<br/>samples = 24<br/>value = [9.398, 22.285]<br/>class = Yes>, fillcolor="#399de593"] ;
627 -> 635 ;
636 [label=<Age &le; 13.5<br/>gini = 0.436<br/>samples = 23<br/>value = [9.398, 19.809]<br/>class = Yes>, fillcolor="#399de586"] ;
635 -> 636 ;
637 [label=<Scholarship &le; 0.5<br/>gini = 0.37<br/>samples = 16<br/>value = [5.639, 17.333]<br/>class = Yes>, fillcolor="#399de5ac"] ;
636 -> 637 ;
638 [label=<SMS_received &le; 0.5<br/>gini = 0.399<br/>samples = 15<br/>value = [5.639, 14.857]<br/>class = Yes>, fillcolor="#399de59e"] ;
637 -> 638 ;
639 [label=<Age &le; 12.5<br/>gini = 0.43<br/>samples = 14<br/>value = [5.639, 12.38]<br/>class = Yes>, fillcolor="#399de58b"] ;
638 -> 639 ;
640 [label=<gini = 0.399<br/>samples = 5<br/>value = [1.88, 4.952]<br/>class = Yes>, fillcolor="#399de59e"] ;
639 -> 640 ;
641 [label=<gini = 0.446<br/>samples = 9<br/>value = [3.759, 7.428]<br/>class = Yes>, fillcolor="#399de57e"] ;
639 -> 641 ;
642 [label=<gini = 0.0<br/>samples = 1<br/>value = [0.0, 2.476]<br/>class = Yes>, fillcolor="#399de5ff"] ;
638 -> 642 ;
643 [label=<gini = 0.0<br/>samples = 1<br/>value = [0.0, 2.476]<br/>class = Yes>, fillcolor="#399de5ff"] ;
637 -> 643 ;
644 [label=<Scholarship &le; 0.5<br/>gini = 0.479<br/>samples = 7<br/>value = [3.759, 2.476]<br/>class = No>, fillcolor="#e5813957"] ;
636 -> 644 ;
645 [label=<gini = 0.0<br/>samples = 4<br/>value = [2.506, 0.0]<br/>class = No>, fillcolor="#e58139ff"] ;
644 -> 645 ;
646 [label=<SMS_received &le; 0.5<br/>gini = 0.446<br/>samples = 3<br/>value = [1.253, 2.476]<br/>class = Yes>, fillcolor="#399de57e"] ;
644 -> 646 ;
647 [label=<gini = 0.322<br/>samples = 2<br/>value = [0.627, 2.476]<br/>class = Yes>, fillcolor="#399de5be"] ;
646 -> 647 ;
648 [label=<gini = 0.0<br/>samples = 1<br/>value = [0.627, 0.0]<br/>class = No>, fillcolor="#e58139ff"] ;
646 -> 648 ;
649 [label=<gini = 0.0<br/>samples = 1<br/>value = [0.0, 2.476]<br/>class = Yes>, fillcolor="#399de5ff"] ;
635 -> 649 ;
650 [label=<Handcap &le; 0.5<br/>gini = 0.5<br/>samples = 147<br/>value = [73.928, 71.807]<br/>class = No>, fillcolor="#e5813907"] ;
626 -> 650 ;
651 [label=<Age &le; 16.5<br/>gini = 0.5<br/>samples = 143<br/>value = [71.422, 71.807]<br/>class = Yes>, fillcolor="#399de501"] ;
650 -> 651 ;
652 [label=<Scholarship &le; 0.5<br/>gini = 0.47<br/>samples = 30<br/>value = [16.289, 9.904]<br/>class = No>, fillcolor="#e5813964"] ;
651 -> 652 ;
653 [label=<Age &le; 15.5<br/>gini = 0.436<br/>samples = 28<br/>value = [15.663, 7.428]<br/>class = No>, fillcolor="#e5813986"] ;
652 -> 653 ;
654 [label=<gini = 0.0<br/>samples = 10<br/>value = [6.265, 0.0]<br/>class = No>, fillcolor="#e58139ff"] ;
653 -> 654 ;
655 [label=<SMS_received &le; 0.5<br/>gini = 0.493<br/>samples = 18<br/>value = [9.398, 7.428]<br/>class = No>, fillcolor="#e5813935"] ;
653 -> 655 ;
656 [label=<Gender &le; 0.5<br/>gini = 0.499<br/>samples = 16<br/>value = [8.145, 7.428]<br/>class = No>, fillcolor="#e5813916"] ;
655 -> 656 ;
657 [label=<gini = 0.5<br/>samples = 5<br/>value = [2.506, 2.476]<br/>class = No>, fillcolor="#e5813903"] ;
656 -> 657 ;
658 [label=<gini = 0.498<br/>samples = 11<br/>value = [5.639, 4.952]<br/>class = No>, fillcolor="#e581391f"] ;
656 -> 658 ;
659 [label=<gini = 0.0<br/>samples = 2<br/>value = [1.253, 0.0]<br/>class = No>, fillcolor="#e58139ff"] ;
655 -> 659 ;
660 [label=<Age &le; 15.5<br/>gini = 0.322<br/>samples = 2<br/>value = [0.627, 2.476]<br/>class = Yes>, fillcolor="#399de5be"] ;
652 -> 660 ;
661 [label=<gini = 0.0<br/>samples = 1<br/>value = [0.0, 2.476]<br/>class = Yes>, fillcolor="#399de5ff"] ;
660 -> 661 ;
662 [label=<gini = 0.0<br/>samples = 1<br/>value = [0.627, 0.0]<br/>class = No>, fillcolor="#e58139ff"] ;
660 -> 662 ;
663 [label=<Age &le; 18.5<br/>gini = 0.498<br/>samples = 113<br/>value = [55.133, 61.902]<br/>class = Yes>, fillcolor="#399de51c"] ;
651 -> 663 ;
664 [label=<Scholarship &le; 0.5<br/>gini = 0.468<br/>samples = 37<br/>value = [16.289, 27.237]<br/>class = Yes>, fillcolor="#399de566"] ;
663 -> 664 ;
665 [label=<SMS_received &le; 0.5<br/>gini = 0.439<br/>samples = 32<br/>value = [13.157, 27.237]<br/>class = Yes>, fillcolor="#399de584"] ;
664 -> 665 ;
666 [label=<Age &le; 17.5<br/>gini = 0.399<br/>samples = 25<br/>value = [9.398, 24.761]<br/>class = Yes>, fillcolor="#399de59e"] ;
665 -> 666 ;
667 [label=<Gender &le; 0.5<br/>gini = 0.322<br/>samples = 12<br/>value = [3.759, 14.857]<br/>class = Yes>, fillcolor="#399de5be"] ;
666 -> 667 ;
668 [label=<gini = 0.247<br/>samples = 5<br/>value = [1.253, 7.428]<br/>class = Yes>, fillcolor="#399de5d4"] ;
667 -> 668 ;
669 [label=<gini = 0.377<br/>samples = 7<br/>value = [2.506, 7.428]<br/>class = Yes>, fillcolor="#399de5a9"] ;
667 -> 669 ;
670 [label=<Gender &le; 0.5<br/>gini = 0.462<br/>samples = 13<br/>value = [5.639, 9.904]<br/>class = Yes>, fillcolor="#399de56e"] ;
666 -> 670 ;
671 [label=<gini = 0.0<br/>samples = 1<br/>value = [0.627, 0.0]<br/>class = No>, fillcolor="#e58139ff"] ;
670 -> 671 ;
672 [label=<gini = 0.446<br/>samples = 12<br/>value = [5.012, 9.904]<br/>class = Yes>, fillcolor="#399de57e"] ;
670 -> 672 ;
673 [label=<Age &le; 17.5<br/>gini = 0.479<br/>samples = 7<br/>value = [3.759, 2.476]<br/>class = No>, fillcolor="#e5813957"] ;
665 -> 673 ;
674 [label=<gini = 0.0<br/>samples = 3<br/>value = [1.88, 0.0]<br/>class = No>, fillcolor="#e58139ff"] ;
673 -> 674 ;
675 [label=<Gender &le; 0.5<br/>gini = 0.491<br/>samples = 4<br/>value = [1.88, 2.476]<br/>class = Yes>, fillcolor="#399de53d"] ;
673 -> 675 ;
676 [label=<gini = 0.0<br/>samples = 1<br/>value = [0.627, 0.0]<br/>class = No>, fillcolor="#e58139ff"] ;
675 -> 676 ;
677 [label=<gini = 0.446<br/>samples = 3<br/>value = [1.253, 2.476]<br/>class = Yes>, fillcolor="#399de57e"] ;
675 -> 677 ;
678 [label=<gini = 0.0<br/>samples = 5<br/>value = [3.133, 0.0]<br/>class = No>, fillcolor="#e58139ff"] ;
664 -> 678 ;
679 [label=<Age &le; 20.5<br/>gini = 0.498<br/>samples = 76<br/>value = [38.844, 34.665]<br/>class = No>, fillcolor="#e581391b"] ;
663 -> 679 ;
680 [label=<SMS_received &le; 0.5<br/>gini = 0.454<br/>samples = 42<br/>value = [23.181, 12.38]<br/>class = No>, fillcolor="#e5813977"] ;
679 -> 680 ;
681 [label=<Age &le; 19.5<br/>gini = 0.465<br/>samples = 39<br/>value = [21.301, 12.38]<br/>class = No>, fillcolor="#e581396b"] ;
680 -> 681 ;
682 [label=<Gender &le; 0.5<br/>gini = 0.443<br/>samples = 27<br/>value = [15.036, 7.428]<br/>class = No>, fillcolor="#e5813981"] ;
681 -> 682 ;
683 [label=<gini = 0.443<br/>samples = 9<br/>value = [5.012, 2.476]<br/>class = No>, fillcolor="#e5813981"] ;
682 -> 683 ;
684 [label=<gini = 0.443<br/>samples = 18<br/>value = [10.024, 4.952]<br/>class = No>, fillcolor="#e5813981"] ;
682 -> 684 ;
685 [label=<Scholarship &le; 0.5<br/>gini = 0.493<br/>samples = 12<br/>value = [6.265, 4.952]<br/>class = No>, fillcolor="#e5813935"] ;
681 -> 685 ;
686 [label=<Gender &le; 0.5<br/>gini = 0.498<br/>samples = 11<br/>value = [5.639, 4.952]<br/>class = No>, fillcolor="#e581391f"] ;
685 -> 686 ;
687 [label=<gini = 0.491<br/>samples = 4<br/>value = [1.88, 2.476]<br/>class = Yes>, fillcolor="#399de53d"] ;
686 -> 687 ;
688 [label=<gini = 0.479<br/>samples = 7<br/>value = [3.759, 2.476]<br/>class = No>, fillcolor="#e5813957"] ;
686 -> 688 ;
689 [label=<gini = -0.0<br/>samples = 1<br/>value = [0.627, 0.0]<br/>class = No>, fillcolor="#e58139ff"] ;
685 -> 689 ;
690 [label=<gini = 0.0<br/>samples = 3<br/>value = [1.88, 0.0]<br/>class = No>, fillcolor="#e58139ff"] ;
680 -> 690 ;
691 [label=<SMS_received &le; 0.5<br/>gini = 0.485<br/>samples = 34<br/>value = [15.663, 22.285]<br/>class = Yes>, fillcolor="#399de54c"] ;
679 -> 691 ;
692 [label=<Scholarship &le; 0.5<br/>gini = 0.497<br/>samples = 31<br/>value = [15.036, 17.333]<br/>class = Yes>, fillcolor="#399de522"] ;
691 -> 692 ;
693 [label=<Gender &le; 0.5<br/>gini = 0.499<br/>samples = 27<br/>value = [13.783, 12.38]<br/>class = No>, fillcolor="#e581391a"] ;
692 -> 693 ;
694 [label=<Age &le; 21.5<br/>gini = 0.475<br/>samples = 7<br/>value = [3.133, 4.952]<br/>class = Yes>, fillcolor="#399de55e"] ;
693 -> 694 ;
695 [label=<gini = 0.446<br/>samples = 3<br/>value = [1.253, 2.476]<br/>class = Yes>, fillcolor="#399de57e"] ;
694 -> 695 ;
696 [label=<gini = 0.491<br/>samples = 4<br/>value = [1.88, 2.476]<br/>class = Yes>, fillcolor="#399de53d"] ;
694 -> 696 ;
697 [label=<Diabetes &le; 0.5<br/>gini = 0.484<br/>samples = 20<br/>value = [10.651, 7.428]<br/>class = No>, fillcolor="#e581394d"] ;
693 -> 697 ;
698 [label=<Age &le; 21.5<br/>gini = 0.489<br/>samples = 19<br/>value = [10.024, 7.428]<br/>class = No>, fillcolor="#e5813942"] ;
697 -> 698 ;
699 [label=<gini = 0.487<br/>samples = 13<br/>value = [6.892, 4.952]<br/>class = No>, fillcolor="#e5813948"] ;
698 -> 699 ;
700 [label=<gini = 0.493<br/>samples = 6<br/>value = [3.133, 2.476]<br/>class = No>, fillcolor="#e5813935"] ;
698 -> 700 ;
701 [label=<gini = 0.0<br/>samples = 1<br/>value = [0.627, 0.0]<br/>class = No>, fillcolor="#e58139ff"] ;
697 -> 701 ;
702 [label=<Age &le; 21.5<br/>gini = 0.322<br/>samples = 4<br/>value = [1.253, 4.952]<br/>class = Yes>, fillcolor="#399de5be"] ;
692 -> 702 ;
703 [label=<gini = 0.0<br/>samples = 1<br/>value = [0.0, 2.476]<br/>class = Yes>, fillcolor="#399de5ff"] ;
702 -> 703 ;
704 [label=<gini = 0.446<br/>samples = 3<br/>value = [1.253, 2.476]<br/>class = Yes>, fillcolor="#399de57e"] ;
702 -> 704 ;
705 [label=<Age &le; 21.5<br/>gini = 0.199<br/>samples = 3<br/>value = [0.627, 4.952]<br/>class = Yes>, fillcolor="#399de5df"] ;
691 -> 705 ;
706 [label=<gini = 0.0<br/>samples = 1<br/>value = [0.0, 2.476]<br/>class = Yes>, fillcolor="#399de5ff"] ;
705 -> 706 ;
707 [label=<gini = 0.322<br/>samples = 2<br/>value = [0.627, 2.476]<br/>class = Yes>, fillcolor="#399de5be"] ;
705 -> 707 ;
708 [label=<gini = 0.0<br/>samples = 4<br/>value = [2.506, 0.0]<br/>class = No>, fillcolor="#e58139ff"] ;
650 -> 708 ;
709 [label=<Gender &le; 0.5<br/>gini = 0.377<br/>samples = 14<br/>value = [5.012, 14.857]<br/>class = Yes>, fillcolor="#399de5a9"] ;
625 -> 709 ;
710 [label=<gini = 0.0<br/>samples = 2<br/>value = [1.253, 0.0]<br/>class = No>, fillcolor="#e58139ff"] ;
709 -> 710 ;
711 [label=<Alcoholism &le; 0.5<br/>gini = 0.322<br/>samples = 12<br/>value = [3.759, 14.857]<br/>class = Yes>, fillcolor="#399de5be"] ;
709 -> 711 ;
712 [label=<SMS_received &le; 0.5<br/>gini = 0.288<br/>samples = 11<br/>value = [3.133, 14.857]<br/>class = Yes>, fillcolor="#399de5c9"] ;
711 -> 712 ;
713 [label=<gini = 0.322<br/>samples = 8<br/>value = [2.506, 9.904]<br/>class = Yes>, fillcolor="#399de5be"] ;
712 -> 713 ;
714 [label=<gini = 0.199<br/>samples = 3<br/>value = [0.627, 4.952]<br/>class = Yes>, fillcolor="#399de5df"] ;
712 -> 714 ;
715 [label=<gini = -0.0<br/>samples = 1<br/>value = [0.627, 0.0]<br/>class = No>, fillcolor="#e58139ff"] ;
711 -> 715 ;
716 [label=<gini = 0.0<br/>samples = 2<br/>value = [0.0, 4.952]<br/>class = Yes>, fillcolor="#399de5ff"] ;
624 -> 716 ;
717 [label=<Age &le; 37.5<br/>gini = 0.474<br/>samples = 393<br/>value = [212.388, 133.709]<br/>class = No>, fillcolor="#e581395e"] ;
623 -> 717 ;
718 [label=<Scholarship &le; 0.5<br/>gini = 0.449<br/>samples = 234<br/>value = [129.688, 66.855]<br/>class = No>, fillcolor="#e581397c"] ;
717 -> 718 ;
719 [label=<Hipertension &le; 0.5<br/>gini = 0.469<br/>samples = 189<br/>value = [102.748, 61.902]<br/>class = No>, fillcolor="#e5813965"] ;
718 -> 719 ;
720 [label=<Diabetes &le; 0.5<br/>gini = 0.459<br/>samples = 179<br/>value = [98.362, 54.474]<br/>class = No>, fillcolor="#e5813972"] ;
719 -> 720 ;
721 [label=<Age &le; 30.5<br/>gini = 0.453<br/>samples = 177<br/>value = [97.736, 51.998]<br/>class = No>, fillcolor="#e5813977"] ;
720 -> 721 ;
722 [label=<Age &le; 28.5<br/>gini = 0.481<br/>samples = 96<br/>value = [51.374, 34.665]<br/>class = No>, fillcolor="#e5813953"] ;
721 -> 722 ;
723 [label=<Age &le; 27.5<br/>gini = 0.437<br/>samples = 65<br/>value = [36.338, 17.333]<br/>class = No>, fillcolor="#e5813985"] ;
722 -> 723 ;
724 [label=<Gender &le; 0.5<br/>gini = 0.456<br/>samples = 58<br/>value = [31.952, 17.333]<br/>class = No>, fillcolor="#e5813975"] ;
723 -> 724 ;
725 [label=<Age &le; 25.5<br/>gini = 0.381<br/>samples = 25<br/>value = [14.41, 4.952]<br/>class = No>, fillcolor="#e58139a7"] ;
724 -> 725 ;
726 [label=<Age &le; 24.5<br/>gini = 0.318<br/>samples = 17<br/>value = [10.024, 2.476]<br/>class = No>, fillcolor="#e58139c0"] ;
725 -> 726 ;
727 [label=<SMS_received &le; 0.5<br/>gini = 0.424<br/>samples = 10<br/>value = [5.639, 2.476]<br/>class = No>, fillcolor="#e581398f"] ;
726 -> 727 ;
728 [label=<gini = 0.443<br/>samples = 9<br/>value = [5.012, 2.476]<br/>class = No>, fillcolor="#e5813981"] ;
727 -> 728 ;
729 [label=<gini = 0.0<br/>samples = 1<br/>value = [0.627, 0.0]<br/>class = No>, fillcolor="#e58139ff"] ;
727 -> 729 ;
730 [label=<gini = -0.0<br/>samples = 7<br/>value = [4.386, 0.0]<br/>class = No>, fillcolor="#e58139ff"] ;
726 -> 730 ;
731 [label=<Age &le; 26.5<br/>gini = 0.461<br/>samples = 8<br/>value = [4.386, 2.476]<br/>class = No>, fillcolor="#e581396f"] ;
725 -> 731 ;
732 [label=<Handcap &le; 0.5<br/>gini = 0.479<br/>samples = 7<br/>value = [3.759, 2.476]<br/>class = No>, fillcolor="#e5813957"] ;
731 -> 732 ;
733 [label=<gini = 0.493<br/>samples = 6<br/>value = [3.133, 2.476]<br/>class = No>, fillcolor="#e5813935"] ;
732 -> 733 ;
734 [label=<gini = 0.0<br/>samples = 1<br/>value = [0.627, 0.0]<br/>class = No>, fillcolor="#e58139ff"] ;
732 -> 734 ;
735 [label=<gini = 0.0<br/>samples = 1<br/>value = [0.627, 0.0]<br/>class = No>, fillcolor="#e58139ff"] ;
731 -> 735 ;
736 [label=<SMS_received &le; 0.5<br/>gini = 0.485<br/>samples = 33<br/>value = [17.542, 12.38]<br/>class = No>, fillcolor="#e581394b"] ;
724 -> 736 ;
737 [label=<Age &le; 24.5<br/>gini = 0.47<br/>samples = 30<br/>value = [16.289, 9.904]<br/>class = No>, fillcolor="#e5813964"] ;
736 -> 737 ;
738 [label=<gini = 0.0<br/>samples = 4<br/>value = [2.506, 0.0]<br/>class = No>, fillcolor="#e58139ff"] ;
737 -> 738 ;
739 [label=<Age &le; 26.5<br/>gini = 0.487<br/>samples = 26<br/>value = [13.783, 9.904]<br/>class = No>, fillcolor="#e5813948"] ;
737 -> 739 ;
740 [label=<Age &le; 25.5<br/>gini = 0.499<br/>samples = 16<br/>value = [8.145, 7.428]<br/>class = No>, fillcolor="#e5813916"] ;
739 -> 740 ;
741 [label=<gini = 0.479<br/>samples = 7<br/>value = [3.759, 2.476]<br/>class = No>, fillcolor="#e5813957"] ;
740 -> 741 ;
742 [label=<gini = 0.498<br/>samples = 9<br/>value = [4.386, 4.952]<br/>class = Yes>, fillcolor="#399de51d"] ;
740 -> 742 ;
743 [label=<gini = 0.424<br/>samples = 10<br/>value = [5.639, 2.476]<br/>class = No>, fillcolor="#e581398f"] ;
739 -> 743 ;
744 [label=<Age &le; 24.5<br/>gini = 0.446<br/>samples = 3<br/>value = [1.253, 2.476]<br/>class = Yes>, fillcolor="#399de57e"] ;
736 -> 744 ;
745 [label=<gini = 0.322<br/>samples = 2<br/>value = [0.627, 2.476]<br/>class = Yes>, fillcolor="#399de5be"] ;
744 -> 745 ;
746 [label=<gini = 0.0<br/>samples = 1<br/>value = [0.627, 0.0]<br/>class = No>, fillcolor="#e58139ff"] ;
744 -> 746 ;
747 [label=<gini = 0.0<br/>samples = 7<br/>value = [4.386, 0.0]<br/>class = No>, fillcolor="#e58139ff"] ;
723 -> 747 ;
